{"learner":{"attributes":{"best_iteration":"277","best_score":"0.6787732146429212"},"feature_names":["ret_1d_z","ret_5d_z","sma_20_z","sma_50_z","rsi_z","macd_z","macd_signal_z","bb_width_z","vol_sma_z","vol_ratio_z","trend_sma"],"feature_types":["float","float","float","float","float","float","float","float","float","float","int"],"gradient_booster":{"model":{"cats":{"enc":[],"feature_segments":[],"sorted_idx":[]},"gbtree_model_param":{"num_parallel_tree":"1","num_trees":"328"},"iteration_indptr":[0,1,2,3,4,5,6,7,8,9,10,11,12,13,14,15,16,17,18,19,20,21,22,23,24,25,26,27,28,29,30,31,32,33,34,35,36,37,38,39,40,41,42,43,44,45,46,47,48,49,50,51,52,53,54,55,56,57,58,59,60,61,62,63,64,65,66,67,68,69,70,71,72,73,74,75,76,77,78,79,80,81,82,83,84,85,86,87,88,89,90,91,92,93,94,95,96,97,98,99,100,101,102,103,104,105,106,107,108,109,110,111,112,113,114,115,116,117,118,119,120,121,122,123,124,125,126,127,128,129,130,131,132,133,134,135,136,137,138,139,140,141,142,143,144,145,146,147,148,149,150,151,152,153,154,155,156,157,158,159,160,161,162,163,164,165,166,167,168,169,170,171,172,173,174,175,176,177,178,179,180,181,182,183,184,185,186,187,188,189,190,191,192,193,194,195,196,197,198,199,200,201,202,203,204,205,206,207,208,209,210,211,212,213,214,215,216,217,218,219,220,221,222,223,224,225,226,227,228,229,230,231,232,233,234,235,236,237,238,239,240,241,242,243,244,245,246,247,248,249,250,251,252,253,254,255,256,257,258,259,260,261,262,263,264,265,266,267,268,269,270,271,272,273,274,275,276,277,278,279,280,281,282,283,284,285,286,287,288,289,290,291,292,293,294,295,296,297,298,299,300,301,302,303,304,305,306,307,308,309,310,311,312,313,314,315,316,317,318,319,320,321,322,323,324,325,326,327,328],"tree_info":[0,0,0,0,0,0,0,0,0,0,0,0,0,0,0,0,0,0,0,0,0,0,0,0,0,0,0,0,0,0,0,0,0,0,0,0,0,0,0,0,0,0,0,0,0,0,0,0,0,0,0,0,0,0,0,0,0,0,0,0,0,0,0,0,0,0,0,0,0,0,0,0,0,0,0,0,0,0,0,0,0,0,0,0,0,0,0,0,0,0,0,0,0,0,0,0,0,0,0,0,0,0,0,0,0,0,0,0,0,0,0,0,0,0,0,0,0,0,0,0,0,0,0,0,0,0,0,0,0,0,0,0,0,0,0,0,0,0,0,0,0,0,0,0,0,0,0,0,0,0,0,0,0,0,0,0,0,0,0,0,0,0,0,0,0,0,0,0,0,0,0,0,0,0,0,0,0,0,0,0,0,0,0,0,0,0,0,0,0,0,0,0,0,0,0,0,0,0,0,0,0,0,0,0,0,0,0,0,0,0,0,0,0,0,0,0,0,0,0,0,0,0,0,0,0,0,0,0,0,0,0,0,0,0,0,0,0,0,0,0,0,0,0,0,0,0,0,0,0,0,0,0,0,0,0,0,0,0,0,0,0,0,0,0,0,0,0,0,0,0,0,0,0,0,0,0,0,0,0,0,0,0,0,0,0,0,0,0,0,0,0,0,0,0,0,0,0,0,0,0,0,0,0,0,0,0,0,0,0,0,0,0,0,0,0,0,0,0,0,0,0,0,0,0,0,0,0,0],"trees":[{"base_weights":[1.6435064E-2,-2.2442655E-1,1.78564E-1,5.810844E-1,-4.2283455E-1,8.774892E-1,-1.0533535E-2,7.93879E-3,-2.868901E-4,-0E0,-6.4081764E-3,1.23363985E-2,-1.1923339E-3,-3.180905E-3,1.7489541E-3],"categories":[],"categories_nodes":[],"categories_segments":[],"categories_sizes":[],"default_left":[0,0,0,0,0,0,0,0,0,0,0,0,0,0,0],"id":0,"left_children":[1,3,5,7,9,11,13,-1,-1,-1,-1,-1,-1,-1,-1],"loss_changes":[5.549966E0,9.274297E0,1.1873201E1,1.8757966E0,4.1062403E0,7.5189734E0,4.0879145E0,0E0,0E0,0E0,0E0,0E0,0E0,0E0,0E0],"parents":[2147483647,0,0,1,1,2,2,3,3,4,4,5,5,6,6],"right_children":[2,4,6,8,10,12,14,-1,-1,-1,-1,-1,-1,-1,-1],"split_conditions":[-3.977179E-1,-1.6778007E0,-7.555716E-2,1.4122044E0,-5.890446E-1,8.066076E-1,1.522138E-1,7.93879E-3,-2.868901E-4,-0E0,-6.4081764E-3,1.23363985E-2,-1.1923339E-3,-3.180905E-3,1.7489541E-3],"split_indices":[1,4,1,2,7,8,4,0,0,0,0,0,0,0,0],"split_type":[0,0,0,0,0,0,0,0,0,0,0,0,0,0,0],"sum_hessian":[1.3967018E2,5.4718727E1,8.495145E1,9.744431E0,4.4974297E1,1.7490004E1,6.746144E1,7.495716E0,2.248715E0,1.6240719E1,2.8733578E1,1.2992575E1,4.49743E0,2.598515E1,4.1476295E1],"tree_param":{"num_deleted":"0","num_feature":"11","num_nodes":"15","size_leaf_vector":"1"}},{"base_weights":[4.766565E-2,-3.0956835E-1,1.9491504E-1,1.4043683E-1,-8.1983024E-1,4.8631364E-1,4.829E-2,3.396475E-3,-3.5504415E-3,-0E0,-1.1295312E-2,-1.0615546E-3,6.6494057E-3,-7.3020784E-3,1.246306E-3],"categories":[],"categories_nodes":[],"categories_segments":[],"categories_sizes":[],"default_left":[0,0,0,0,0,0,0,0,0,0,0,0,0,0,0],"id":1,"left_children":[1,3,5,7,9,11,13,-1,-1,-1,-1,-1,-1,-1,-1],"loss_changes":[7.222434E0,9.57788E0,3.9141788E0,2.3189144E0,4.6029854E0,3.7432055E0,3.9024758E0,0E0,0E0,0E0,0E0,0E0,0E0,0E0,0E0],"parents":[2147483647,0,0,1,1,2,2,3,3,4,4,5,5,6,6],"right_children":[2,4,6,8,10,12,14,-1,-1,-1,-1,-1,-1,-1,-1],"split_conditions":[-6.1001545E-1,-7.8145355E-1,-3.7650574E-2,-8.157253E-1,-6.4149135E-1,-9.798835E-1,1.4691367E-2,3.396475E-3,-3.5504415E-3,-0E0,-1.1295312E-2,-1.0615546E-3,6.6494057E-3,-7.3020784E-3,1.246306E-3],"split_indices":[1,4,1,1,8,4,1,0,0,0,0,0,0,0,0],"split_type":[0,0,0,0,0,0,0,0,0,0,0,0,0,0,0],"sum_hessian":[1.3517133E2,3.7980274E1,9.719105E1,2.0238771E1,1.7741503E1,3.022921E1,6.696184E1,1.54913E1,4.7474713E0,5.497144E0,1.224436E1,6.495246E0,2.3733963E1,4.2477107E0,6.271413E1],"tree_param":{"num_deleted":"0","num_feature":"11","num_nodes":"15","size_leaf_vector":"1"}},{"base_weights":[1.3041935E-3,2.0743561E-1,-1.6435209E-1,-0E0,5.4558945E-1,-3.770405E-1,-0E0,2.1198648E-3,-4.3823537E-3,7.4925786E-3,-1.1434037E-3,-9.622956E-3,-3.1008017E-6,2.6112038E-3,-2.515283E-3],"categories":[],"categories_nodes":[],"categories_segments":[],"categories_sizes":[],"default_left":[0,0,0,0,0,0,0,0,0,0,0,0,0,0,0],"id":2,"left_children":[1,3,5,7,9,11,13,-1,-1,-1,-1,-1,-1,-1,-1],"loss_changes":[4.8588486E0,4.514887E0,2.6387022E0,3.9895716E0,3.7370005E0,6.8451176E0,3.0835931E0,0E0,0E0,0E0,0E0,0E0,0E0,0E0,0E0],"parents":[2147483647,0,0,1,1,2,2,3,3,4,4,5,5,6,6],"right_children":[2,4,6,8,10,12,14,-1,-1,-1,-1,-1,-1,-1,-1],"split_conditions":[1.2665857E-1,-1.0678674E0,1.4985421E0,-6.8908E-1,9.6583724E-1,-3.8719562E-1,1.4540575E0,2.1198648E-3,-4.3823537E-3,7.4925786E-3,-1.1434037E-3,-9.622956E-3,-3.1008017E-6,2.6112038E-3,-2.515283E-3],"split_indices":[3,3,3,2,1,9,2,0,0,0,0,0,0,0,0],"split_type":[0,0,0,0,0,0,0,0,0,0,0,0,0,0,0],"sum_hessian":[1.386638E2,6.296029E1,7.570351E1,3.9974667E1,2.2985624E1,3.1730928E1,4.397258E1,2.7482845E1,1.2491819E1,1.798858E1,4.997043E0,1.0993573E1,2.0737354E1,2.1236391E1,2.2736187E1],"tree_param":{"num_deleted":"0","num_feature":"11","num_nodes":"15","size_leaf_vector":"1"}},{"base_weights":[-1.7471263E-2,-1.625228E-1,2.5919032E-1,9.63396E-2,-3.5205668E-1,5.506428E-1,-6.782302E-2,3.599666E-3,-3.356088E-3,-5.4065804E-3,5.580686E-5,6.673841E-3,-2.988907E-3,2.1114862E-3,-7.718004E-3],"categories":[],"categories_nodes":[],"categories_segments":[],"categories_sizes":[],"default_left":[0,0,0,0,0,0,0,0,0,0,0,0,0,0,0],"id":3,"left_children":[1,3,5,7,9,11,13,-1,-1,-1,-1,-1,-1,-1,-1],"loss_changes":[5.769936E0,4.898161E0,4.940832E0,4.830513E0,4.114674E0,3.134759E0,5.137216E0,0E0,0E0,0E0,0E0,0E0,0E0,0E0,0E0],"parents":[2147483647,0,0,1,1,2,2,3,3,4,4,5,5,6,6],"right_children":[2,4,6,8,10,12,14,-1,-1,-1,-1,-1,-1,-1,-1],"split_conditions":[3.442764E-1,-6.2113786E-1,1.0197311E-1,-5.7064548E-2,1.3228692E0,1.524998E0,3.4536543E-1,3.599666E-3,-3.356088E-3,-5.4065804E-3,5.580686E-5,6.673841E-3,-2.988907E-3,2.1114862E-3,-7.718004E-3],"split_indices":[0,8,9,1,8,0,8,0,0,0,0,0,0,0,0],"split_type":[0,0,0,0,0,0,0,0,0,0,0,0,0,0,0],"sum_hessian":[1.4191032E2,9.469077E1,4.7219543E1,3.9221783E1,5.546899E1,2.5233372E1,2.1986174E1,2.5230564E1,1.39912195E1,3.6729824E1,1.8739164E1,2.2984991E1,2.2483797E0,1.5989652E1,5.9965224E0],"tree_param":{"num_deleted":"0","num_feature":"11","num_nodes":"15","size_leaf_vector":"1"}},{"base_weights":[-6.180836E-3,-1.6852401E-1,2.536604E-1,4.3052316E-1,-2.5744078E-1,5.2468365E-1,3.0603472E-2,8.89859E-3,-3.3334743E-3,-5.240421E-3,-4.899663E-4,3.1663885E-3,1.1861233E-2,1.8915822E-3,-9.721609E-3],"categories":[],"categories_nodes":[],"categories_segments":[],"categories_sizes":[],"default_left":[0,0,0,0,0,0,0,0,0,0,0,0,0,0,0],"id":4,"left_children":[1,3,5,7,9,11,13,-1,-1,-1,-1,-1,-1,-1,-1],"loss_changes":[6.060604E0,4.8840847E0,2.9908514E0,4.755493E0,4.132069E0,1.91682E0,5.0485806E0,0E0,0E0,0E0,0E0,0E0,0E0,0E0,0E0],"parents":[2147483647,0,0,1,1,2,2,3,3,4,4,5,5,6,6],"right_children":[2,4,6,8,10,12,14,-1,-1,-1,-1,-1,-1,-1,-1],"split_conditions":[3.3658263E-1,-1.7115217E0,-2.109212E-1,-1.3563792E0,-6.1001545E-1,1.2422479E0,1.5871471E0,8.89859E-3,-3.3334743E-3,-5.240421E-3,-4.899663E-4,3.1663885E-3,1.1861233E-2,1.8915822E-3,-9.721609E-3],"split_indices":[4,4,7,5,1,0,0,0,0,0,0,0,0,0,0],"split_type":[0,0,0,0,0,0,0,0,0,0,0,0,0,0,0],"sum_hessian":[1.4166159E2,8.869702E1,5.296457E1,9.992156E0,7.8704865E1,2.1983627E1,3.098094E1,6.4941874E0,3.4979687E0,3.2485676E1,4.621919E1,1.8985918E1,2.9977098E0,2.8232544E1,2.7483966E0],"tree_param":{"num_deleted":"0","num_feature":"11","num_nodes":"15","size_leaf_vector":"1"}},{"base_weights":[-0E0,-2.6233774E-1,1.0623355E-1,1.5435784E-1,-5.414556E-1,3.1651136E-1,-2.0850728E-1,3.4744092E-3,-5.58968E-3,-1.04009E-3,-9.615814E-3,1.4600758E-3,8.788514E-3,1.8385883E-3,-5.56865E-3],"categories":[],"categories_nodes":[],"categories_segments":[],"categories_sizes":[],"default_left":[0,0,0,0,0,0,0,0,0,0,0,0,0,0,0],"id":5,"left_children":[1,3,5,7,9,11,13,-1,-1,-1,-1,-1,-1,-1,-1],"loss_changes":[4.0654373E0,5.259756E0,6.849265E0,2.5943875E0,4.185868E0,5.2591662E0,5.8723936E0,0E0,0E0,0E0,0E0,0E0,0E0,0E0,0E0],"parents":[2147483647,0,0,1,1,2,2,3,3,4,4,5,5,6,6],"right_children":[2,4,6,8,10,12,14,-1,-1,-1,-1,-1,-1,-1,-1],"split_conditions":[-6.1001545E-1,-6.099601E-1,5.131165E-1,1.6510176E-2,-8.331407E-1,6.731376E-1,-6.8908E-1,3.4744092E-3,-5.58968E-3,-1.04009E-3,-9.615814E-3,1.4600758E-3,8.788514E-3,1.8385883E-3,-5.56865E-3],"split_indices":[1,8,1,4,4,7,2,0,0,0,0,0,0,0,0],"split_type":[0,0,0,0,0,0,0,0,0,0,0,0,0,0,0],"sum_hessian":[1.4065903E2,4.0980946E1,9.967808E1,1.5989423E1,2.4991524E1,6.070281E1,3.8975273E1,1.3740482E1,2.2489402E0,1.37431965E1,1.1248327E1,4.87118E1,1.1991009E1,1.7987928E1,2.0987345E1],"tree_param":{"num_deleted":"0","num_feature":"11","num_nodes":"15","size_leaf_vector":"1"}},{"base_weights":[-3.0676752E-2,-3.9750943E-1,5.009734E-2,6.1609868E-2,-8.041856E-1,3.5486335E-1,-1.02667324E-1,-4.0706503E-3,6.949342E-3,-9.0937745E-3,-0E0,5.794282E-5,9.143845E-3,3.8856748E-4,-5.068126E-3],"categories":[],"categories_nodes":[],"categories_segments":[],"categories_sizes":[],"default_left":[0,0,0,0,0,0,0,0,0,0,0,0,0,0,0],"id":6,"left_children":[1,3,5,7,9,11,13,-1,-1,-1,-1,-1,-1,-1,-1],"loss_changes":[4.4231873E0,5.4837594E0,5.624427E0,4.5724783E0,1.6694527E0,7.4360375E0,4.7222433E0,0E0,0E0,0E0,0E0,0E0,0E0,0E0,0E0],"parents":[2147483647,0,0,1,1,2,2,3,3,4,4,5,5,6,6],"right_children":[2,4,6,8,10,12,14,-1,-1,-1,-1,-1,-1,-1,-1],"split_conditions":[-1.4404175E0,-2.0012312E0,1.2665857E-1,-3.779414E-1,2.049047E0,4.62211E-1,8.351557E-1,-4.0706503E-3,6.949342E-3,-9.0937745E-3,-0E0,5.794282E-5,9.143845E-3,3.8856748E-4,-5.068126E-3],"split_indices":[3,3,3,6,4,0,8,0,0,0,0,0,0,0,0],"split_type":[0,0,0,0,0,0,0,0,0,0,0,0,0,0,0],"sum_hessian":[1.4090729E2,2.5483427E1,1.1542386E2,1.1990247E1,1.3493179E1,3.8969055E1,7.64548E1,6.745108E0,5.2451386E0,1.2243903E1,1.2492766E0,2.5481216E1,1.3487838E1,5.671343E1,1.9741371E1],"tree_param":{"num_deleted":"0","num_feature":"11","num_nodes":"15","size_leaf_vector":"1"}},{"base_weights":[-2.2225719E-2,-3.0758506E-1,9.357425E-2,-1.2216775E-1,-9.829929E-1,4.499681E-1,-5.545738E-2,-3.2365378E-3,3.3567788E-3,-1.1976729E-2,-0E0,-3.9430857E-3,6.2826728E-3,-1.4293165E-3,5.2915886E-3],"categories":[],"categories_nodes":[],"categories_segments":[],"categories_sizes":[],"default_left":[0,0,0,0,0,0,0,0,0,0,0,0,0,0,0],"id":7,"left_children":[1,3,5,7,9,11,13,-1,-1,-1,-1,-1,-1,-1,-1],"loss_changes":[4.773436E0,4.524918E0,5.515625E0,3.4072566E0,1.7103853E0,5.075512E0,3.5233488E0,0E0,0E0,0E0,0E0,0E0,0E0,0E0,0E0],"parents":[2147483647,0,0,1,1,2,2,3,3,4,4,5,5,6,6],"right_children":[2,4,6,8,10,12,14,-1,-1,-1,-1,-1,-1,-1,-1],"split_conditions":[-6.1001545E-1,6.659456E-1,-5.7064548E-2,1.0877575E0,1.5676941E0,-8.6302704E-1,1.7176007E0,-3.2365378E-3,3.3567788E-3,-1.1976729E-2,-0E0,-3.9430857E-3,6.2826728E-3,-1.4293165E-3,5.2915886E-3],"split_indices":[1,5,1,2,5,0,6,0,0,0,0,0,0,0,0],"split_type":[0,0,0,0,0,0,0,0,0,0,0,0,0,0,0],"sum_hessian":[1.3840962E2,4.0483047E1,9.792657E1,3.3733833E1,6.7492146E0,2.8971136E1,6.895543E1,2.44887E1,9.2451315E0,5.249343E0,1.499872E0,4.245666E0,2.4725471E1,6.1710426E1,7.245005E0],"tree_param":{"num_deleted":"0","num_feature":"11","num_nodes":"15","size_leaf_vector":"1"}},{"base_weights":[-2.9512743E-2,2.394016E-1,-1.8290713E-1,-4.4510168E-1,4.2653856E-1,-8.1010467E-1,-9.5829085E-2,1.287188E-3,-9.92094E-3,-0E0,5.88352E-3,-1.0630595E-2,-0E0,2.5594843E-4,-4.296962E-3],"categories":[],"categories_nodes":[],"categories_segments":[],"categories_sizes":[],"default_left":[0,0,0,0,0,0,0,0,0,0,0,0,0,0,0],"id":8,"left_children":[1,3,5,7,9,11,13,-1,-1,-1,-1,-1,-1,-1,-1],"loss_changes":[5.8292017E0,6.7398973E0,4.4246655E0,4.074319E0,3.0956697E0,2.0307612E0,3.5709527E0,0E0,0E0,0E0,0E0,0E0,0E0,0E0,0E0],"parents":[2147483647,0,0,1,1,2,2,3,3,4,4,5,5,6,6],"right_children":[2,4,6,8,10,12,14,-1,-1,-1,-1,-1,-1,-1,-1],"split_conditions":[-7.851887E-1,-1.5505594E0,-1.4404175E0,-2.3442636E0,-3.6451676E-1,4.4057432E-1,1.9580309E0,1.287188E-3,-9.92094E-3,-0E0,5.88352E-3,-1.0630595E-2,-0E0,2.5594843E-4,-4.296962E-3],"split_indices":[2,5,3,6,0,9,3,0,0,0,0,0,0,0,0],"split_type":[0,0,0,0,0,0,0,0,0,0,0,0,0,0,0],"sum_hessian":[1.3890663E2,4.8965332E1,8.99413E1,9.49506E0,3.9470276E1,8.746447E0,8.1194855E1,4.747568E0,4.7474914E0,1.0494021E1,2.8976254E1,6.247305E0,2.4991417E0,5.9458015E1,2.173684E1],"tree_param":{"num_deleted":"0","num_feature":"11","num_nodes":"15","size_leaf_vector":"1"}},{"base_weights":[-4.3184996E-2,8.7976956E-1,-9.3514584E-2,-0E0,9.9918514E-1,-1.7734365E-1,4.5655593E-1,1.179355E-2,-0E0,1.8752343E-3,-3.0929495E-3,-4.615967E-3,7.446108E-3],"categories":[],"categories_nodes":[],"categories_segments":[],"categories_sizes":[],"default_left":[0,0,0,0,0,0,0,0,0,0,0,0,0],"id":9,"left_children":[1,3,5,-1,7,9,11,-1,-1,-1,-1,-1,-1],"loss_changes":[6.3452587E0,3.2294416E-1,6.2950506E0,0E0,5.177674E-1,5.957706E0,5.347967E0,0E0,0E0,0E0,0E0,0E0,0E0],"parents":[2147483647,0,0,1,1,2,2,4,4,5,5,6,6],"right_children":[2,4,6,-1,8,10,12,-1,-1,-1,-1,-1,-1],"split_conditions":[-1.9894568E0,-2.0209513E0,1.3712171E0,-0E0,1.4540575E0,-1.1750715E0,-1.3173809E0,1.179355E-2,-0E0,1.8752343E-3,-3.0929495E-3,-4.615967E-3,7.446108E-3],"split_indices":[4,5,4,0,2,2,2,0,0,0,0,0,0],"split_type":[0,0,0,0,0,0,0,0,0,0,0,0,0],"sum_hessian":[1.4090488E2,5.4943094E0,1.3541057E2,1.2484481E0,4.2458615E0,1.1917416E2,1.6236406E1,2.9966326E0,1.2492287E0,3.047759E1,8.869656E1,3.2470887E0,1.2989317E1],"tree_param":{"num_deleted":"0","num_feature":"11","num_nodes":"13","size_leaf_vector":"1"}},{"base_weights":[1.4808016E-2,-1.7425288E-1,2.344985E-1,5.2891303E-2,-4.2217776E-1,-3.8690025E-1,3.2388195E-1,-1.9144742E-3,3.7305253E-3,-1.1597536E-2,-2.1862925E-3,1.3220424E-3,-1.0321534E-2,6.9735968E-3,5.51131E-4],"categories":[],"categories_nodes":[],"categories_segments":[],"categories_sizes":[],"default_left":[0,0,0,0,0,0,0,0,0,0,0,0,0,0,0],"id":10,"left_children":[1,3,5,7,9,11,13,-1,-1,-1,-1,-1,-1,-1,-1],"loss_changes":[6.1825843E0,4.636469E0,4.0274534E0,3.4229069E0,4.7454724E0,3.5836039E0,5.8347597E0,0E0,0E0,0E0,0E0,0E0,0E0,0E0,0E0],"parents":[2147483647,0,0,1,1,2,2,3,3,4,4,5,5,6,6],"right_children":[2,4,6,8,10,12,14,-1,-1,-1,-1,-1,-1,-1,-1],"split_conditions":[-3.3774734E-3,3.19172E-2,-1.7609276E0,-1.0221946E0,3.7909576E-1,6.6016406E-1,-5.031392E-1,-1.9144742E-3,3.7305253E-3,-1.1597536E-2,-2.1862925E-3,1.3220424E-3,-1.0321534E-2,6.9735968E-3,5.51131E-4],"split_indices":[0,6,2,6,6,1,2,0,0,0,0,0,0,0,0],"split_type":[0,0,0,0,0,0,0,0,0,0,0,0,0,0,0],"sum_hessian":[1.4515187E2,7.6957886E1,6.819399E1,3.9725433E1,3.7232452E1,7.244329E0,6.094966E1,2.1986917E1,1.7738514E1,5.997402E0,3.123505E1,4.246118E0,2.998211E0,2.3726845E1,3.7222816E1],"tree_param":{"num_deleted":"0","num_feature":"11","num_nodes":"15","size_leaf_vector":"1"}},{"base_weights":[-6.0489275E-2,-2.2670345E-1,1.7423178E-1,6.408139E-1,-3.0007827E-1,-1.8435365E-1,2.9845902E-1,8.985906E-3,-1.8616508E-4,-0E0,-4.6340497E-3,7.808731E-4,-8.663902E-3,-3.8848615E-3,3.979067E-3],"categories":[],"categories_nodes":[],"categories_segments":[],"categories_sizes":[],"default_left":[0,0,0,0,0,0,0,0,0,0,0,0,0,0,0],"id":11,"left_children":[1,3,5,7,9,11,13,-1,-1,-1,-1,-1,-1,-1,-1],"loss_changes":[5.5534353E0,5.4617968E0,2.7100735E0,1.5689225E0,3.7294865E0,3.1338017E0,3.274227E0,0E0,0E0,0E0,0E0,0E0,0E0,0E0,0E0],"parents":[2147483647,0,0,1,1,2,2,3,3,4,4,5,5,6,6],"right_children":[2,4,6,8,10,12,14,-1,-1,-1,-1,-1,-1,-1,-1],"split_conditions":[2.3276809E-1,-1.9894568E0,-1.0684227E0,1.4540575E0,-7.834998E-1,1.379777E0,-1.9395587E0,8.985906E-3,-1.8616508E-4,-0E0,-4.6340497E-3,7.808731E-4,-8.663902E-3,-3.8848615E-3,3.979067E-3],"split_indices":[4,4,8,2,2,2,2,0,0,0,0,0,0,0,0],"split_type":[0,0,0,0,0,0,0,0,0,0,0,0,0,0,0],"sum_hessian":[1.3865366E2,8.244962E1,5.6204033E1,4.9937353E0,7.745589E1,1.3238844E1,4.296519E1,3.7442806E0,1.2494549E0,2.8480835E1,4.8975056E1,9.989967E0,3.2488768E0,4.2462635E0,3.8718925E1],"tree_param":{"num_deleted":"0","num_feature":"11","num_nodes":"15","size_leaf_vector":"1"}},{"base_weights":[7.6329745E-2,-1.1365269E-1,2.4910249E-1,7.282347E-1,-2.3688245E-1,3.0923018E-1,-6.542542E-3,-1.8204912E-4,9.297051E-3,2.4280504E-3,-3.5427725E-3,1.8187839E-3,8.688619E-3],"categories":[],"categories_nodes":[],"categories_segments":[],"categories_sizes":[],"default_left":[0,0,0,0,0,0,0,0,0,0,0,0,0],"id":12,"left_children":[1,3,5,7,9,11,-1,-1,-1,-1,-1,-1,-1],"loss_changes":[4.8007317E0,7.037935E0,4.2964196E0,1.7587914E0,3.6038806E0,4.471666E0,0E0,0E0,0E0,0E0,0E0,0E0,0E0],"parents":[2147483647,0,0,1,1,2,2,3,3,4,4,5,5],"right_children":[2,4,6,8,10,12,-1,-1,-1,-1,-1,-1,-1],"split_conditions":[-1.9421558E-1,-2.1258307E0,2.6592588E0,-2.786055E0,-1.5926031E0,1.6600299E0,-6.542542E-3,-1.8204912E-4,9.297051E-3,2.4280504E-3,-3.5427725E-3,1.8187839E-3,8.688619E-3],"split_indices":[4,6,2,2,4,5,0,0,0,0,0,0,0],"split_type":[0,0,0,0,0,0,0,0,0,0,0,0,0],"sum_hessian":[1.4140062E2,6.62123E1,7.5188324E1,6.9958534E0,5.9216446E1,7.194E1,3.2483242E0,1.2494391E0,5.746414E0,1.0490325E1,4.872612E1,6.095077E1,1.0989231E1],"tree_param":{"num_deleted":"0","num_feature":"11","num_nodes":"13","size_leaf_vector":"1"}},{"base_weights":[3.1217717E-2,3.510295E-1,-8.954558E-2,7.1158713E-1,-1.5017642E-2,-1.7622405E-1,4.954847E-1,8.99279E-3,-1.5470199E-3,-3.196662E-3,7.1772626E-3,-4.7818944E-3,-9.541707E-5,8.834965E-3,-3.990248E-4],"categories":[],"categories_nodes":[],"categories_segments":[],"categories_sizes":[],"default_left":[0,0,0,0,0,0,0,0,0,0,0,0,0,0,0],"id":13,"left_children":[1,3,5,7,9,11,13,-1,-1,-1,-1,-1,-1,-1,-1],"loss_changes":[5.5712485E0,5.606255E0,5.1147637E0,3.9512215E0,4.718981E0,4.288827E0,3.120772E0,0E0,0E0,0E0,0E0,0E0,0E0,0E0,0E0],"parents":[2147483647,0,0,1,1,2,2,3,3,4,4,5,5,6,6],"right_children":[2,4,6,8,10,12,14,-1,-1,-1,-1,-1,-1,-1,-1],"split_conditions":[-7.915821E-1,3.9693922E-1,1.8213184E0,9.792292E-1,-1.0224386E0,-4.9907583E-1,2.2861028E0,8.99279E-3,-1.5470199E-3,-3.196662E-3,7.1772626E-3,-4.7818944E-3,-9.541707E-5,8.834965E-3,-3.990248E-4],"split_indices":[7,3,6,1,7,9,6,0,0,0,0,0,0,0,0],"split_type":[0,0,0,0,0,0,0,0,0,0,0,0,0,0,0],"sum_hessian":[1.3814641E2,3.821736E1,9.992905E1,1.9227846E1,1.8989513E1,8.869131E1,1.12377405E1,1.6231213E1,2.9966347E0,1.4492169E1,4.4973445E0,2.9480595E1,5.9210712E1,6.491645E0,4.746096E0],"tree_param":{"num_deleted":"0","num_feature":"11","num_nodes":"15","size_leaf_vector":"1"}},{"base_weights":[-1.1305082E-2,-1.8120565E-1,2.3360272E-1,6.3555664E-1,-2.510318E-1,5.7104963E-1,1.1541162E-2,8.90623E-3,-0E0,-5.5806087E-3,-8.26751E-4,-0E0,8.457651E-3,-1.4112332E-3,5.9814164E-3],"categories":[],"categories_nodes":[],"categories_segments":[],"categories_sizes":[],"default_left":[0,0,0,0,0,0,0,0,0,0,0,0,0,0,0],"id":14,"left_children":[1,3,5,7,9,11,13,-1,-1,-1,-1,-1,-1,-1,-1],"loss_changes":[5.827074E0,4.8492317E0,3.928213E0,7.450001E-1,3.704822E0,3.1757684E0,3.6207023E0,0E0,0E0,0E0,0E0,0E0,0E0,0E0,0E0],"parents":[2147483647,0,0,1,1,2,2,3,3,4,4,5,5,6,6],"right_children":[2,4,6,8,10,12,14,-1,-1,-1,-1,-1,-1,-1,-1],"split_conditions":[2.3276809E-1,-1.9894568E0,1.7954975E-1,-5.4335886E-1,-9.798835E-1,-3.8488254E-1,8.638492E-1,8.90623E-3,-0E0,-5.5806087E-3,-8.26751E-4,-0E0,8.457651E-3,-1.4112332E-3,5.9814164E-3],"split_indices":[4,4,1,0,4,1,7,0,0,0,0,0,0,0,0],"split_type":[0,0,0,0,0,0,0,0,0,0,0,0,0,0,0],"sum_hessian":[1.3764398E2,8.270238E1,5.49416E1,4.992388E0,7.770999E1,1.9976347E1,3.4965256E1,2.7453926E0,2.2469952E0,2.5239376E1,5.2470615E1,7.246108E0,1.2730239E1,2.7972178E1,6.9930773E0],"tree_param":{"num_deleted":"0","num_feature":"11","num_nodes":"15","size_leaf_vector":"1"}},{"base_weights":[-3.9774295E-2,5.1825225E-1,-9.6390165E-2,8.5240304E-1,-0E0,-5.062263E-1,4.2309653E-2,1.0692643E-2,-0E0,-5.0329682E-3,5.790704E-3,5.743958E-4,-6.2567485E-3,3.929417E-3,-8.8219874E-4],"categories":[],"categories_nodes":[],"categories_segments":[],"categories_sizes":[],"default_left":[0,0,0,0,0,0,0,0,0,0,0,0,0,0,0],"id":15,"left_children":[1,3,5,7,9,11,13,-1,-1,-1,-1,-1,-1,-1,-1],"loss_changes":[4.259888E0,2.3386853E0,7.5630083E0,1.513246E0,2.1650672E0,2.5931683E0,4.6167417E0,0E0,0E0,0E0,0E0,0E0,0E0,0E0,0E0],"parents":[2147483647,0,0,1,1,2,2,3,3,4,4,5,5,6,6],"right_children":[2,4,6,8,10,12,14,-1,-1,-1,-1,-1,-1,-1,-1],"split_conditions":[-1.6778007E0,-5.4335886E-1,-6.233533E-1,-7.455478E-1,-9.289315E-1,-1.3307382E0,-7.555716E-2,1.0692643E-2,-0E0,-5.0329682E-3,5.790704E-3,5.743958E-4,-6.2567485E-3,3.929417E-3,-8.8219874E-4],"split_indices":[4,0,1,1,1,2,1,0,0,0,0,0,0,0,0],"split_type":[0,0,0,0,0,0,0,0,0,0,0,0,0,0,0],"sum_hessian":[1.3764049E2,1.0738247E1,1.26902245E2,6.2425957E0,4.4956512E0,3.1994308E1,9.4907936E1,4.744015E0,1.4985802E0,2.7479324E0,1.7477189E0,4.998706E0,2.6995604E1,2.596772E1,6.8940216E1],"tree_param":{"num_deleted":"0","num_feature":"11","num_nodes":"15","size_leaf_vector":"1"}},{"base_weights":[-1.0184569E-1,1.2339773E-1,-3.2385668E-1,4.7166857E-1,-1.14643924E-1,5.173279E-1,-4.3128413E-1,-5.5783497E-5,8.056354E-3,1.5028242E-3,-5.25676E-3,-3.4357153E-4,9.114223E-3,-6.6526607E-3,-1.6347591E-3],"categories":[],"categories_nodes":[],"categories_segments":[],"categories_sizes":[],"default_left":[0,0,0,0,0,0,0,0,0,0,0,0,0,0,0],"id":16,"left_children":[1,3,5,7,9,11,13,-1,-1,-1,-1,-1,-1,-1,-1],"loss_changes":[6.8807316E0,5.7875423E0,6.546289E0,4.9042506E0,4.6577454E0,2.2233508E0,3.3527412E0,0E0,0E0,0E0,0E0,0E0,0E0,0E0,0E0],"parents":[2147483647,0,0,1,1,2,2,3,3,4,4,5,5,6,6],"right_children":[2,4,6,8,10,12,14,-1,-1,-1,-1,-1,-1,-1,-1],"split_conditions":[1.2665857E-1,-4.1978568E-1,-1.7861583E0,-1.4440576E0,-7.1300244E-1,-1.0464826E0,-3.6949438E-1,-5.5783497E-5,8.056354E-3,1.5028242E-3,-5.25676E-3,-3.4357153E-4,9.114223E-3,-6.6526607E-3,-1.6347591E-3],"split_indices":[3,9,5,3,2,8,4,0,0,0,0,0,0,0,0],"split_type":[0,0,0,0,0,0,0,0,0,0,0,0,0,0,0],"sum_hessian":[1.3289365E2,6.517939E1,6.771426E1,2.6717781E1,3.8461605E1,6.4931912E0,6.122106E1,1.0990242E1,1.5727539E1,2.3226397E1,1.5235209E1,2.7475073E0,3.745684E0,3.0489473E1,3.073159E1],"tree_param":{"num_deleted":"0","num_feature":"11","num_nodes":"15","size_leaf_vector":"1"}},{"base_weights":[-1.2279631E-2,-1.7881475E-1,1.9908081E-1,1.15759894E-1,-4.1045874E-1,1.1051468E-1,9.5523256E-1,-4.970737E-5,5.6872484E-3,-0E0,-8.263559E-3,1.9692197E-3,-7.2922795E-3,-0E0,1.1318871E-2],"categories":[],"categories_nodes":[],"categories_segments":[],"categories_sizes":[],"default_left":[0,0,0,0,0,0,0,0,0,0,0,0,0,0,0],"id":17,"left_children":[1,3,5,7,9,11,13,-1,-1,-1,-1,-1,-1,-1,-1],"loss_changes":[4.879224E0,5.6063285E0,3.322447E0,2.1988883E0,7.5264897E0,4.008051E0,4.2583466E-1,0E0,0E0,0E0,0E0,0E0,0E0,0E0,0E0],"parents":[2147483647,0,0,1,1,2,2,3,3,4,4,5,5,6,6],"right_children":[2,4,6,8,10,12,14,-1,-1,-1,-1,-1,-1,-1,-1],"split_conditions":[1.9104455E-1,-3.4407094E-1,1.4923487E0,-1.7498432E-1,-2.0983617E-1,1.5871471E0,6.4412963E-1,-4.970737E-5,5.6872484E-3,-0E0,-8.263559E-3,1.9692197E-3,-7.2922795E-3,-0E0,1.1318871E-2],"split_indices":[4,8,9,4,9,0,0,0,0,0,0,0,0,0,0],"split_type":[0,0,0,0,0,0,0,0,0,0,0,0,0,0,0],"sum_hessian":[1.3588934E2,7.745645E1,5.8432888E1,3.347686E1,4.397959E1,5.4437263E1,3.9956243E0,2.6731659E1,6.745199E0,2.3236914E1,2.0742676E1,5.09394E1,3.4978635E0,1.2491704E0,2.7464538E0],"tree_param":{"num_deleted":"0","num_feature":"11","num_nodes":"15","size_leaf_vector":"1"}},{"base_weights":[4.893952E-2,-3.4832284E-1,1.5754478E-1,-5.8237576E-1,1.7003956E-1,3.393464E-1,-3.5105016E-2,3.3200472E-3,-6.8810857E-3,-3.1472766E-3,9.520848E-3,2.3400723E-3,9.559438E-3,-4.4538835E-3,9.347761E-4],"categories":[],"categories_nodes":[],"categories_segments":[],"categories_sizes":[],"default_left":[0,0,0,0,0,0,0,0,0,0,0,0,0,0,0],"id":18,"left_children":[1,3,5,7,9,11,13,-1,-1,-1,-1,-1,-1,-1,-1],"loss_changes":[6.0650587E0,3.9609396E0,4.1155777E0,2.5975413E0,4.461692E0,2.9298654E0,3.1251292E0,0E0,0E0,0E0,0E0,0E0,0E0,0E0,0E0],"parents":[2147483647,0,0,1,1,2,2,3,3,4,4,5,5,6,6],"right_children":[2,4,6,8,10,12,14,-1,-1,-1,-1,-1,-1,-1,-1],"split_conditions":[-1.4440576E0,4.4057432E-1,1.1337526E0,-1.0799359E0,1.9687268E-1,1.0855229E0,1.578482E0,3.3200472E-3,-6.8810857E-3,-3.1472766E-3,9.520848E-3,2.3400723E-3,9.559438E-3,-4.4538835E-3,9.347761E-4],"split_indices":[3,9,3,9,1,9,3,0,0,0,0,0,0,0,0],"split_type":[0,0,0,0,0,0,0,0,0,0,0,0,0,0,0],"sum_hessian":[1.393776E2,2.8223913E1,1.1115369E2,1.9981245E1,8.242668E0,5.793459E1,5.3219097E1,1.2481599E0,1.8733086E1,5.247119E0,2.9955492E0,5.194116E1,5.9934297E0,1.2744992E1,4.0474102E1],"tree_param":{"num_deleted":"0","num_feature":"11","num_nodes":"15","size_leaf_vector":"1"}},{"base_weights":[-1.4303763E-1,-4.253653E-1,7.964469E-3,6.4877056E-2,-6.791956E-1,-1.1862967E-1,3.1371197E-1,2.9366107E-3,-9.193852E-3,1.7114865E-3,-7.964606E-3,2.3312909E-3,-2.8401597E-3,4.8802984E-3,-1.7146927E-3],"categories":[],"categories_nodes":[],"categories_segments":[],"categories_sizes":[],"default_left":[0,0,0,0,0,0,0,0,0,0,0,0,0,0,0],"id":19,"left_children":[1,3,5,7,9,11,13,-1,-1,-1,-1,-1,-1,-1,-1],"loss_changes":[6.0920095E0,6.4992733E0,3.642829E0,4.030839E0,3.8314915E0,3.8298507E0,2.6490445E0,0E0,0E0,0E0,0E0,0E0,0E0,0E0,0E0],"parents":[2147483647,0,0,1,1,2,2,3,3,4,4,5,5,6,6],"right_children":[2,4,6,8,10,12,14,-1,-1,-1,-1,-1,-1,-1,-1],"split_conditions":[-4.7268304E-1,-1.3765464E0,6.841742E-1,2.1583428E0,-1.635754E0,-8.308821E-2,1.5871471E0,2.9366107E-3,-9.193852E-3,1.7114865E-3,-7.964606E-3,2.3312909E-3,-2.8401597E-3,4.8802984E-3,-1.7146927E-3],"split_indices":[1,1,0,3,4,1,0,0,0,0,0,0,0,0,0],"split_type":[0,0,0,0,0,0,0,0,0,0,0,0,0,0,0],"sum_hessian":[1.3638275E2,4.772933E1,8.865343E1,1.5991153E1,3.1738174E1,6.218749E1,2.646594E1,1.4241328E1,1.7498251E0,3.246095E0,2.849208E1,1.872462E1,4.3462868E1,2.0222172E1,6.243768E0],"tree_param":{"num_deleted":"0","num_feature":"11","num_nodes":"15","size_leaf_vector":"1"}},{"base_weights":[-6.063586E-2,-1.2611154E-1,3.6043367E-1,1.4300165E-1,-2.4716732E-1,6.5882987E-1,-5.576817E-1,2.8519705E-3,-8.6649535E-3,1.0824262E-3,-3.5436596E-3,8.610156E-3,-3.3035367E-3,-1.113667E-2,3.2297159E-3],"categories":[],"categories_nodes":[],"categories_segments":[],"categories_sizes":[],"default_left":[0,0,0,0,0,0,0,0,0,0,0,0,0,0,0],"id":20,"left_children":[1,3,5,7,9,11,13,-1,-1,-1,-1,-1,-1,-1,-1],"loss_changes":[3.9177728E0,4.231288E0,5.731227E0,5.6734266E0,3.578722E0,3.7378707E0,3.3800879E0,0E0,0E0,0E0,0E0,0E0,0E0,0E0,0E0],"parents":[2147483647,0,0,1,1,2,2,3,3,4,4,5,5,6,6],"right_children":[2,4,6,8,10,12,14,-1,-1,-1,-1,-1,-1,-1,-1],"split_conditions":[1.2794839E0,-9.6886194E-1,2.2229486E0,1.3419198E0,-1.2915535E0,1.5941664E0,2.5291228E0,2.8519705E-3,-8.6649535E-3,1.0824262E-3,-3.5436596E-3,8.610156E-3,-3.3035367E-3,-1.113667E-2,3.2297159E-3],"split_indices":[4,8,5,6,5,8,5,0,0,0,0,0,0,0,0],"split_type":[0,0,0,0,0,0,0,0,0,0,0,0,0,0,0],"sum_hessian":[1.4238025E2,1.2515676E2,1.7223488E1,3.7465904E1,8.7690865E1,1.3729485E1,3.4940038E0,3.4217613E1,3.2482884E0,1.9236082E1,6.845478E1,1.1980527E1,1.7489575E0,2.2465532E0,1.2474507E0],"tree_param":{"num_deleted":"0","num_feature":"11","num_nodes":"15","size_leaf_vector":"1"}},{"base_weights":[-2.3863068E-2,-3.679371E-1,1.02217205E-1,-1.1951249E-1,-9.0814906E-1,5.419932E-1,-0E0,-5.4456047E-3,2.167124E-3,-0E0,-1.0213294E-2,-5.4826273E-4,8.122192E-3,-2.6307513E-3,2.224714E-3],"categories":[],"categories_nodes":[],"categories_segments":[],"categories_sizes":[],"default_left":[0,0,0,0,0,0,0,0,0,0,0,0,0,0,0],"id":21,"left_children":[1,3,5,7,9,11,13,-1,-1,-1,-1,-1,-1,-1,-1],"loss_changes":[6.311267E0,4.5886316E0,4.4938626E0,4.519159E0,6.859646E-1,3.5057406E0,5.104455E0,0E0,0E0,0E0,0E0,0E0,0E0,0E0,0E0],"parents":[2147483647,0,0,1,1,2,2,3,3,4,4,5,5,6,6],"right_children":[2,4,6,8,10,12,14,-1,-1,-1,-1,-1,-1,-1,-1],"split_conditions":[-6.1001545E-1,1.0615733E0,-2.8813025E-1,-2.211366E-1,-4.8110494E-1,-3.516091E-1,1.665816E-1,-5.4456047E-3,2.167124E-3,-0E0,-1.0213294E-2,-5.4826273E-4,8.122192E-3,-2.6307513E-3,2.224714E-3],"split_indices":[1,8,1,9,9,0,5,0,0,0,0,0,0,0,0],"split_type":[0,0,0,0,0,0,0,0,0,0,0,0,0,0,0],"sum_hessian":[1.3962169E2,3.77339E1,1.0188779E2,2.7736338E1,9.997561E0,1.7475214E1,8.4412575E1,1.2496365E1,1.5239974E1,1.7494365E0,8.248125E0,5.24235E0,1.2232864E1,3.7967327E1,4.6445244E1],"tree_param":{"num_deleted":"0","num_feature":"11","num_nodes":"15","size_leaf_vector":"1"}},{"base_weights":[-1.7433109E-2,-1.2705487E-1,2.8323305E-1,9.0794474E-2,-2.4855658E-1,3.739616E-1,-3.6482033E-1,6.09833E-3,-0E0,1.0611765E-3,-4.266806E-3,5.546674E-3,-0E0,-0E0,-5.239087E-3],"categories":[],"categories_nodes":[],"categories_segments":[],"categories_sizes":[],"default_left":[0,0,0,0,0,0,0,0,0,0,0,0,0,0,0],"id":22,"left_children":[1,3,5,7,9,11,13,-1,-1,-1,-1,-1,-1,-1,-1],"loss_changes":[4.503765E0,2.8370924E0,2.3229938E0,2.021992E0,4.5209503E0,2.1516924E0,2.2455788E-1,0E0,0E0,0E0,0E0,0E0,0E0,0E0,0E0],"parents":[2147483647,0,0,1,1,2,2,3,3,4,4,5,5,6,6],"right_children":[2,4,6,8,10,12,14,-1,-1,-1,-1,-1,-1,-1,-1],"split_conditions":[7.755773E-1,-8.051395E-1,1.5871471E0,-1.3462784E0,-1.1007354E0,1.4275255E0,-1.143323E0,6.09833E-3,-0E0,1.0611765E-3,-4.266806E-3,5.546674E-3,-0E0,-0E0,-5.239087E-3],"split_indices":[4,4,0,0,2,4,3,0,0,0,0,0,0,0,0],"split_type":[0,0,0,0,0,0,0,0,0,0,0,0,0,0,0],"sum_hessian":[1.358767E2,1.0142619E2,3.4450504E1,3.4977104E1,6.644909E1,3.1452993E1,2.997511E0,4.745547E0,3.0231556E1,2.14794E1,4.496969E1,2.0472857E1,1.0980137E1,1.4985754E0,1.4989353E0],"tree_param":{"num_deleted":"0","num_feature":"11","num_nodes":"15","size_leaf_vector":"1"}},{"base_weights":[7.671812E-2,-1.0864038E-1,2.4335894E-1,6.324074E-1,-1.903736E-1,5.83981E-1,9.372678E-2,1.1553626E-2,-1.6718151E-3,8.0846585E-3,-2.4258655E-3,7.0727966E-3,-3.1797546E-3,-3.01968E-3,2.7850773E-3],"categories":[],"categories_nodes":[],"categories_segments":[],"categories_sizes":[],"default_left":[0,0,0,0,0,0,0,0,0,0,0,0,0,0,0],"id":23,"left_children":[1,3,5,7,9,11,13,-1,-1,-1,-1,-1,-1,-1,-1],"loss_changes":[4.566277E0,4.075903E0,3.5497303E0,3.4978414E0,3.2953465E0,3.0310159E0,4.277279E0,0E0,0E0,0E0,0E0,0E0,0E0,0E0,0E0],"parents":[2147483647,0,0,1,1,2,2,3,3,4,4,5,5,6,6],"right_children":[2,4,6,8,10,12,14,-1,-1,-1,-1,-1,-1,-1,-1],"split_conditions":[-1.4573354E-1,-1.9894568E0,-9.5240253E-1,1.4540575E0,-2.5594118E0,1.5407342E0,-3.5003543E-1,1.1553626E-2,-1.6718151E-3,8.0846585E-3,-2.4258655E-3,7.0727966E-3,-3.1797546E-3,-3.01968E-3,2.7850773E-3],"split_indices":[4,4,8,2,0,2,8,0,0,0,0,0,0,0,0],"split_type":[0,0,0,0,0,0,0,0,0,0,0,0,0,0,0],"sum_hessian":[1.4286732E2,6.646186E1,7.6405464E1,4.990551E0,6.1471306E1,2.0971146E1,5.5434322E1,2.991756E0,1.9987953E0,1.4987066E0,5.99726E1,1.922163E1,1.7495159E0,1.6482042E1,3.895228E1],"tree_param":{"num_deleted":"0","num_feature":"11","num_nodes":"15","size_leaf_vector":"1"}},{"base_weights":[3.2065052E-3,-1.7786965E-1,2.7216628E-1,4.0558E-1,-2.6877546E-1,5.2450877E-2,5.6464064E-1,8.957165E-3,-3.2575806E-3,-7.2743404E-3,-1.4705627E-3,2.2419996E-3,-9.35775E-3,6.711927E-3,-1.7322903E-3],"categories":[],"categories_nodes":[],"categories_segments":[],"categories_sizes":[],"default_left":[0,0,0,0,0,0,0,0,0,0,0,0,0,0,0],"id":24,"left_children":[1,3,5,7,9,11,13,-1,-1,-1,-1,-1,-1,-1,-1],"loss_changes":[6.712463E0,4.3752136E0,3.2565956E0,4.5705795E0,3.3918753E0,5.8492136E0,2.2289872E0,0E0,0E0,0E0,0E0,0E0,0E0,0E0,0E0],"parents":[2147483647,0,0,1,1,2,2,3,3,4,4,5,5,6,6],"right_children":[2,4,6,8,10,12,14,-1,-1,-1,-1,-1,-1,-1,-1],"split_conditions":[2.3276809E-1,-1.7187803E0,3.723366E-1,-1.3773011E0,-1.059531E0,1.2823044E-1,1.5871471E0,8.957165E-3,-3.2575806E-3,-7.2743404E-3,-1.4705627E-3,2.2419996E-3,-9.35775E-3,6.711927E-3,-1.7322903E-3],"split_indices":[4,4,7,5,0,7,0,0,0,0,0,0,0,0,0],"split_type":[0,0,0,0,0,0,0,0,0,0,0,0,0,0,0],"sum_hessian":[1.3386758E2,7.9197296E1,5.4670284E1,9.234719E0,6.996258E1,3.3204575E1,2.1465708E1,5.736619E0,3.4981008E0,1.2245846E1,5.771673E1,2.9707245E1,3.497331E0,1.9467653E1,1.998055E0],"tree_param":{"num_deleted":"0","num_feature":"11","num_nodes":"15","size_leaf_vector":"1"}},{"base_weights":[1.6650435E-2,2.7284184E-1,-8.241591E-2,9.0292114E-1,1.19655475E-1,-2.1174444E-1,2.0671472E-1,1.1890979E-2,-3.1767014E-4,-1.124802E-3,5.6425575E-3,-2.4935754E-4,-7.602156E-3,-3.91937E-3,5.081905E-3],"categories":[],"categories_nodes":[],"categories_segments":[],"categories_sizes":[],"default_left":[0,0,0,0,0,0,0,0,0,0,0,0,0,0,0],"id":25,"left_children":[1,3,5,7,9,11,13,-1,-1,-1,-1,-1,-1,-1,-1],"loss_changes":[3.741914E0,3.3276098E0,3.897312E0,2.5717893E0,4.0069213E0,7.0267806E0,5.990138E0,0E0,0E0,0E0,0E0,0E0,0E0,0E0,0E0],"parents":[2147483647,0,0,1,1,2,2,3,3,4,4,5,5,6,6],"right_children":[2,4,6,8,10,12,14,-1,-1,-1,-1,-1,-1,-1,-1],"split_conditions":[-7.719434E-1,-1.5001941E0,8.638492E-1,1.4356349E0,8.77926E-1,1.3076091E0,-1.2442361E0,1.1890979E-2,-3.1767014E-4,-1.124802E-3,5.6425575E-3,-2.4935754E-4,-7.602156E-3,-3.91937E-3,5.081905E-3],"split_indices":[7,2,7,8,2,6,3,0,0,0,0,0,0,0,0],"split_type":[0,0,0,0,0,0,0,0,0,0,0,0,0,0,0],"sum_hessian":[1.4085536E2,3.9952293E1,1.0090306E2,5.739489E0,3.4212803E1,7.119033E1,2.9712734E1,4.4910927E0,1.2483964E0,2.2474352E1,1.1738451E1,5.4953163E1,1.6237165E1,9.245333E0,2.0467402E1],"tree_param":{"num_deleted":"0","num_feature":"11","num_nodes":"15","size_leaf_vector":"1"}},{"base_weights":[-2.6713582E-2,-3.6947194E-1,9.753539E-2,-4.8192993E-2,-7.788845E-1,3.6194634E-1,-5.8641035E-2,5.042093E-3,-3.8887616E-3,-1.0540373E-2,3.4153287E-5,1.1830588E-3,9.5630195E-3,-1.8814562E-3,5.754597E-3],"categories":[],"categories_nodes":[],"categories_segments":[],"categories_sizes":[],"default_left":[0,0,0,0,0,0,0,0,0,0,0,0,0,0,0],"id":26,"left_children":[1,3,5,7,9,11,13,-1,-1,-1,-1,-1,-1,-1,-1],"loss_changes":[6.167303E0,4.6239305E0,4.442132E0,4.749605E0,4.027273E0,5.0408063E0,5.301187E0,0E0,0E0,0E0,0E0,0E0,0E0,0E0,0E0],"parents":[2147483647,0,0,1,1,2,2,3,3,4,4,5,5,6,6],"right_children":[2,4,6,8,10,12,14,-1,-1,-1,-1,-1,-1,-1,-1],"split_conditions":[-6.84566E-1,3.9990548E-2,-7.756255E-1,-1.461566E0,-1.4243092E-2,8.0349845E-1,1.8213184E0,5.042093E-3,-3.8887616E-3,-1.0540373E-2,3.4153287E-5,1.1830588E-3,9.5630195E-3,-1.8814562E-3,5.754597E-3],"split_indices":[1,6,2,1,0,0,6,0,0,0,0,0,0,0,0],"split_type":[0,0,0,0,0,0,0,0,0,0,0,0,0,0,0],"sum_hessian":[1.3885335E2,3.7225433E1,1.0162791E2,2.24814E1,1.4744033E1,3.8192368E1,6.343554E1,7.741415E0,1.47399845E1,1.0994958E1,3.7490752E0,2.8960567E1,9.231802E0,5.4207916E1,9.227621E0],"tree_param":{"num_deleted":"0","num_feature":"11","num_nodes":"15","size_leaf_vector":"1"}},{"base_weights":[6.29563E-2,-1.8792593E-1,2.2049898E-1,-6.5950665E-4,-5.1449615E-1,1.0474674E0,1.269711E-1,-1.6489361E-3,3.7585518E-3,-2.1242488E-3,-9.810043E-3,2.1526897E-3,1.2150907E-2,3.480285E-3,-2.9364627E-4],"categories":[],"categories_nodes":[],"categories_segments":[],"categories_sizes":[],"default_left":[0,0,0,0,0,0,0,0,0,0,0,0,0,0,0],"id":27,"left_children":[1,3,5,7,9,11,13,-1,-1,-1,-1,-1,-1,-1,-1],"loss_changes":[5.8030467E0,3.133215E0,6.2425666E0,2.3198771E0,1.8012624E0,7.5963974E-2,3.0741243E0,0E0,0E0,0E0,0E0,0E0,0E0,0E0,0E0],"parents":[2147483647,0,0,1,1,2,2,3,3,4,4,5,5,6,6],"right_children":[2,4,6,8,10,12,14,-1,-1,-1,-1,-1,-1,-1,-1],"split_conditions":[-3.8488254E-1,1.4715843E-1,-2.6675737E-1,1.0877575E0,1.2796919E-1,-1.220072E0,-7.3237795E-1,-1.6489361E-3,3.7585518E-3,-2.1242488E-3,-9.810043E-3,2.1526897E-3,1.2150907E-2,3.480285E-3,-2.9364627E-4],"split_indices":[1,5,1,2,8,8,2,0,0,0,0,0,0,0,0],"split_type":[0,0,0,0,0,0,0,0,0,0,0,0,0,0,0],"sum_hessian":[1.4333627E2,5.3953625E1,8.938265E1,3.6218693E1,1.7734932E1,6.984125E0,8.239852E1,2.673016E1,9.488534E0,1.2740244E1,4.994688E0,2.2454424E0,4.7386827E0,3.4696693E1,4.770183E1],"tree_param":{"num_deleted":"0","num_feature":"11","num_nodes":"15","size_leaf_vector":"1"}},{"base_weights":[5.019994E-3,-5.937681E-2,3.168057E-1,4.188133E-2,-4.5940918E-1,1.0955951E0,2.2280904E-2,-6.3026324E-4,8.546291E-3,-7.0612496E-3,2.7204144E-3,1.283286E-2,-0E0,-5.171137E-3,3.054646E-3],"categories":[],"categories_nodes":[],"categories_segments":[],"categories_sizes":[],"default_left":[0,0,0,0,0,0,0,0,0,0,0,0,0,0,0],"id":28,"left_children":[1,3,5,7,9,11,13,-1,-1,-1,-1,-1,-1,-1,-1],"loss_changes":[2.9596236E0,4.921337E0,5.2446566E0,8.376208E0,4.922698E0,8.4441376E-1,3.258135E0,0E0,0E0,0E0,0E0,0E0,0E0,0E0,0E0],"parents":[2147483647,0,0,1,1,2,2,3,3,4,4,5,5,6,6],"right_children":[2,4,6,8,10,12,14,-1,-1,-1,-1,-1,-1,-1,-1],"split_conditions":[9.7887486E-1,1.2559975E0,-6.8587947E-1,8.352628E-1,2.6076336E0,2.0780077E0,-1.530069E0,-6.3026324E-4,8.546291E-3,-7.0612496E-3,2.7204144E-3,1.283286E-2,-0E0,-5.171137E-3,3.054646E-3],"split_indices":[7,6,9,6,3,7,3,0,0,0,0,0,0,0,0],"split_type":[0,0,0,0,0,0,0,0,0,0,0,0,0,0,0],"sum_hessian":[1.3809023E2,1.1412856E2,2.3961657E1,9.114944E1,2.297913E1,4.989868E0,1.8971788E1,8.140974E1,9.739703E0,1.7733269E1,5.245862E0,3.7430563E0,1.2468117E0,5.4968705E0,1.3474917E1],"tree_param":{"num_deleted":"0","num_feature":"11","num_nodes":"15","size_leaf_vector":"1"}},{"base_weights":[3.1446133E-2,-2.609954E-1,1.7943648E-1,-5.296296E-1,-4.3014757E-2,3.7489125E-1,-5.990099E-2,-0E0,-8.1156045E-3,1.5148154E-3,-8.206886E-3,6.0447245E-3,6.9245655E-4,-4.1530533E-3,2.4091685E-3],"categories":[],"categories_nodes":[],"categories_segments":[],"categories_sizes":[],"default_left":[0,0,0,0,0,0,0,0,0,0,0,0,0,0,0],"id":29,"left_children":[1,3,5,7,9,11,13,-1,-1,-1,-1,-1,-1,-1,-1],"loss_changes":[6.1783347E0,2.4442945E0,4.698929E0,2.9518447E0,4.8658977E0,3.4176345E0,4.8838034E0,0E0,0E0,0E0,0E0,0E0,0E0,0E0,0E0],"parents":[2147483647,0,0,1,1,2,2,3,3,4,4,5,5,6,6],"right_children":[2,4,6,8,10,12,14,-1,-1,-1,-1,-1,-1,-1,-1],"split_conditions":[-5.499528E-1,1E0,9.335108E-2,-1.2297615E0,1.3076091E0,6.6016406E-1,-6.307703E-3,-0E0,-8.1156045E-3,1.5148154E-3,-8.206886E-3,6.0447245E-3,6.9245655E-4,-4.1530533E-3,2.4091685E-3],"split_indices":[1,10,3,1,6,1,5,0,0,0,0,0,0,0,0],"split_type":[0,0,0,0,0,0,0,0,0,0,0,0,0,0,0],"sum_hessian":[1.4057663E2,4.57153E1,9.486132E1,1.849014E1,2.722516E1,5.2900066E1,4.1961258E1,6.9946423E0,1.1495498E1,2.223025E1,4.994912E0,2.8437347E1,2.4462717E1,1.9735638E1,2.2225618E1],"tree_param":{"num_deleted":"0","num_feature":"11","num_nodes":"15","size_leaf_vector":"1"}},{"base_weights":[-3.1371887E-3,-2.1956082E-1,2.8983194E-1,9.165298E-2,-4.0504545E-1,1.1884278E-1,6.53893E-1,5.323577E-3,-4.4495854E-4,9.3524024E-4,-6.1684316E-3,2.1844183E-3,-4.61881E-3,-0E0,8.848391E-3],"categories":[],"categories_nodes":[],"categories_segments":[],"categories_sizes":[],"default_left":[0,0,0,0,0,0,0,0,0,0,0,0,0,0,0],"id":30,"left_children":[1,3,5,7,9,11,13,-1,-1,-1,-1,-1,-1,-1,-1],"loss_changes":[8.863298E0,4.9276524E0,3.14817E0,2.1227334E0,5.8881874E0,2.4979684E0,2.4968948E0,0E0,0E0,0E0,0E0,0E0,0E0,0E0,0E0],"parents":[2147483647,0,0,1,1,2,2,3,3,4,4,5,5,6,6],"right_children":[2,4,6,8,10,12,14,-1,-1,-1,-1,-1,-1,-1,-1],"split_conditions":[2.217087E-1,-1.1904119E0,2.36358E-1,-1.7115217E0,-9.7648215E-1,3.6091063E-2,-8.6302835E-1,5.323577E-3,-4.4495854E-4,9.3524024E-4,-6.1684316E-3,2.1844183E-3,-4.61881E-3,-0E0,8.848391E-3],"split_indices":[4,5,9,4,8,9,8,0,0,0,0,0,0,0,0],"split_type":[0,0,0,0,0,0,0,0,0,0,0,0,0,0,0],"sum_hessian":[1.3733635E2,8.018454E1,5.715181E1,2.9220442E1,5.09641E1,4.117577E1,1.5976043E1,6.7331057E0,2.2487337E1,1.47409525E1,3.6223145E1,3.6681366E1,4.4944024E0,4.742974E0,1.1233068E1],"tree_param":{"num_deleted":"0","num_feature":"11","num_nodes":"15","size_leaf_vector":"1"}},{"base_weights":[3.3134814E-2,-2.1246031E-1,1.5872982E-1,-3.292007E-1,6.2998515E-1,6.873162E-1,4.3953013E-2,2.8388758E-4,-5.9575606E-3,8.297389E-3,-0E0,-9.12308E-5,9.375642E-3,7.3012463E-3,-3.1246673E-4],"categories":[],"categories_nodes":[],"categories_segments":[],"categories_sizes":[],"default_left":[0,0,0,0,0,0,0,0,0,0,0,0,0,0,0],"id":31,"left_children":[1,3,5,7,9,11,13,-1,-1,-1,-1,-1,-1,-1,-1],"loss_changes":[4.3906984E0,4.8024635E0,5.405924E0,4.403868E0,4.7315574E-1,3.30481E0,4.571145E0,0E0,0E0,0E0,0E0,0E0,0E0,0E0,0E0],"parents":[2147483647,0,0,1,1,2,2,3,3,4,4,5,5,6,6],"right_children":[2,4,6,8,10,12,14,-1,-1,-1,-1,-1,-1,-1,-1],"split_conditions":[-5.0735396E-1,1.6166924E0,-3.222957E-1,-4.830949E-1,2.0780077E0,-6.672456E-1,-1.7115217E0,2.8388758E-4,-5.9575606E-3,8.297389E-3,-0E0,-9.12308E-5,9.375642E-3,7.3012463E-3,-3.1246673E-4],"split_indices":[9,7,9,7,7,0,4,0,0,0,0,0,0,0,0],"split_type":[0,0,0,0,0,0,0,0,0,0,0,0,0,0,0],"sum_hessian":[1.4007578E2,4.569766E1,9.437811E1,4.1459797E1,4.237861E0,1.4725135E1,7.965298E1,1.7477642E1,2.3982153E1,2.4949715E0,1.7428895E0,3.7463517E0,1.0978783E1,7.233647E0,7.2419334E1],"tree_param":{"num_deleted":"0","num_feature":"11","num_nodes":"15","size_leaf_vector":"1"}},{"base_weights":[-2.4217346E-3,3.4591697E-2,-5.800624E-1,-5.2735012E-2,4.5911586E-1,-9.3313277E-1,4.5612114E-3,-1.077591E-3,5.3919554E-3,8.27089E-3,-3.4482952E-3,-1.1601454E-2,-1.5968899E-3],"categories":[],"categories_nodes":[],"categories_segments":[],"categories_sizes":[],"default_left":[0,0,0,0,0,0,0,0,0,0,0,0,0],"id":32,"left_children":[1,3,5,7,9,11,-1,-1,-1,-1,-1,-1,-1],"loss_changes":[3.2654684E0,5.0894995E0,4.258149E0,3.4175043E0,7.606584E0,4.2219496E-1,0E0,0E0,0E0,0E0,0E0,0E0,0E0],"parents":[2147483647,0,0,1,1,2,2,3,3,4,4,5,5],"right_children":[2,4,6,8,10,12,-1,-1,-1,-1,-1,-1,-1],"split_conditions":[1.5871471E0,6.841742E-1,2.6266894E0,1.1217234E0,1.1337526E0,1.9855053E0,4.5612114E-3,-1.077591E-3,5.3919554E-3,8.27089E-3,-3.4482952E-3,-1.1601454E-2,-1.5968899E-3],"split_indices":[0,0,9,9,3,0,0,0,0,0,0,0,0],"split_type":[0,0,0,0,0,0,0,0,0,0,0,0,0],"sum_hessian":[1.3706741E2,1.2932523E2,7.742178E0,1.07373795E2,2.1951437E1,6.2457223E0,1.496456E0,1.0013698E2,7.2368116E0,1.5455887E1,6.49555E0,3.7489512E0,2.4967709E0],"tree_param":{"num_deleted":"0","num_feature":"11","num_nodes":"13","size_leaf_vector":"1"}},{"base_weights":[-1.5193702E-2,-2.1464936E-1,2.500191E-1,7.197233E-2,-3.8477483E-1,4.6163023E-1,-1.0956019E-1,7.588095E-3,-1.4495E-3,2.3039525E-4,-5.782748E-3,-1.4728353E-3,6.8750614E-3,-5.8620465E-3,3.3059802E-3],"categories":[],"categories_nodes":[],"categories_segments":[],"categories_sizes":[],"default_left":[0,0,0,0,0,0,0,0,0,0,0,0,0,0,0],"id":33,"left_children":[1,3,5,7,9,11,13,-1,-1,-1,-1,-1,-1,-1,-1],"loss_changes":[7.551205E0,4.2295933E0,4.8463864E0,5.0854316E0,4.4969573E0,5.8100615E0,5.18234E0,0E0,0E0,0E0,0E0,0E0,0E0,0E0,0E0],"parents":[2147483647,0,0,1,1,2,2,3,3,4,4,5,5,6,6],"right_children":[2,4,6,8,10,12,14,-1,-1,-1,-1,-1,-1,-1,-1],"split_conditions":[1.253845E-1,-1.2770183E0,1.3076091E0,-1.7115217E0,-8.9877874E-1,-6.5134805E-1,1.8213184E0,7.588095E-3,-1.4495E-3,2.3039525E-4,-5.782748E-3,-1.4728353E-3,6.8750614E-3,-5.8620465E-3,3.3059802E-3],"split_indices":[4,5,6,4,7,9,6,0,0,0,0,0,0,0,0],"split_type":[0,0,0,0,0,0,0,0,0,0,0,0,0,0,0],"sum_hessian":[1.400623E2,8.118081E1,5.8881493E1,2.9465216E1,5.1715595E1,3.767481E1,2.1206684E1,6.7261615E0,2.2739054E1,1.6235533E1,3.548006E1,9.73625E0,2.793856E1,1.04877825E1,1.0718902E1],"tree_param":{"num_deleted":"0","num_feature":"11","num_nodes":"15","size_leaf_vector":"1"}},{"base_weights":[-2.3466496E-2,1.592796E-1,-1.9184747E-1,-2.5989437E-1,5.11284E-1,-0E0,-8.5670924E-1,-3.7347546E-3,3.5691762E-3,1.5583525E-3,8.173315E-3,-5.8825575E-3,9.792476E-4,1.6607841E-3,-1.2233539E-2],"categories":[],"categories_nodes":[],"categories_segments":[],"categories_sizes":[],"default_left":[0,0,0,0,0,0,0,0,0,0,0,0,0,0,0],"id":34,"left_children":[1,3,5,7,9,11,13,-1,-1,-1,-1,-1,-1,-1,-1],"loss_changes":[4.2639527E0,9.897868E0,9.223507E0,2.307158E0,3.284114E0,3.515597E0,6.9220276E0,0E0,0E0,0E0,0E0,0E0,0E0,0E0,0E0],"parents":[2147483647,0,0,1,1,2,2,3,3,4,4,5,5,6,6],"right_children":[2,4,6,8,10,12,14,-1,-1,-1,-1,-1,-1,-1,-1],"split_conditions":[1.2665857E-1,-1.4404175E0,1.0615733E0,1.8950293E0,-1.3258597E-1,-1.059531E0,-1.3182439E0,-3.7347546E-3,3.5691762E-3,1.5583525E-3,8.173315E-3,-5.8825575E-3,9.792476E-4,1.6607841E-3,-1.2233539E-2],"split_indices":[3,3,8,4,8,0,5,0,0,0,0,0,0,0,0],"split_type":[0,0,0,0,0,0,0,0,0,0,0,0,0,0,0],"sum_hessian":[1.3505186E2,6.3378242E1,7.167362E1,2.8459805E1,3.4918438E1,5.6937256E1,1.4736368E1,2.5218412E1,3.2413929E0,1.7958565E1,1.6959871E1,7.240658E0,4.9696598E1,3.7453134E0,1.0991055E1],"tree_param":{"num_deleted":"0","num_feature":"11","num_nodes":"15","size_leaf_vector":"1"}},{"base_weights":[-6.1495192E-2,-3.0977517E-1,1.1751361E-1,-1.22048E-1,-7.146255E-1,-7.7065724E-1,1.9914882E-1,-3.3904102E-3,3.3898193E-3,9.795013E-4,-8.84654E-3,-0E0,-1.01315165E-2,3.9223167E-3,-1.8665513E-3],"categories":[],"categories_nodes":[],"categories_segments":[],"categories_sizes":[],"default_left":[0,0,0,0,0,0,0,0,0,0,0,0,0,0,0],"id":35,"left_children":[1,3,5,7,9,11,13,-1,-1,-1,-1,-1,-1,-1,-1],"loss_changes":[6.4748235E0,4.10173E0,5.9332814E0,4.6203303E0,3.042512E0,1.6385207E0,5.9747477E0,0E0,0E0,0E0,0E0,0E0,0E0,0E0,0E0],"parents":[2147483647,0,0,1,1,2,2,3,3,4,4,5,5,6,6],"right_children":[2,4,6,8,10,12,14,-1,-1,-1,-1,-1,-1,-1,-1],"split_conditions":[-3.3419284E-1,-7.186576E-1,-1.9837606E0,-9.798835E-1,-1.5891267E0,-1.0698129E-1,1.2559975E0,-3.3904102E-3,3.3898193E-3,9.795013E-4,-8.84654E-3,-0E0,-1.01315165E-2,3.9223167E-3,-1.8665513E-3],"split_indices":[4,4,2,4,2,7,6,0,0,0,0,0,0,0,0],"split_type":[0,0,0,0,0,0,0,0,0,0,0,0,0,0,0],"sum_hessian":[1.4079243E2,5.969484E1,8.10976E1,4.296117E1,1.6733671E1,5.2452617E0,7.585234E1,3.0219284E1,1.2741886E1,2.4967525E0,1.4236919E1,1.2462391E0,3.9990225E0,5.1399494E1,2.4452845E1],"tree_param":{"num_deleted":"0","num_feature":"11","num_nodes":"15","size_leaf_vector":"1"}},{"base_weights":[5.873685E-3,-1.5754727E-1,2.9740095E-1,1.983163E-1,-3.281463E-1,-1.2420346E-1,5.1135796E-1,-0E0,5.5986554E-3,-1.291803E-3,-7.884543E-3,1.6500852E-3,-6.742345E-3,9.712908E-3,2.5887932E-3],"categories":[],"categories_nodes":[],"categories_segments":[],"categories_sizes":[],"default_left":[0,0,0,0,0,0,0,0,0,0,0,0,0,0,0],"id":36,"left_children":[1,3,5,7,9,11,13,-1,-1,-1,-1,-1,-1,-1,-1],"loss_changes":[6.740296E0,5.544733E0,4.9237437E0,2.1566076E0,5.0155067E0,3.2399037E0,3.091133E0,0E0,0E0,0E0,0E0,0E0,0E0,0E0,0E0],"parents":[2147483647,0,0,1,1,2,2,3,3,4,4,5,5,6,6],"right_children":[2,4,6,8,10,12,14,-1,-1,-1,-1,-1,-1,-1,-1],"split_conditions":[3.3028162E-1,-1.0510674E0,-1.4404175E0,2.9837093E-1,-7.555716E-2,-7.21654E-1,2.0488214E-1,-0E0,5.5986554E-3,-1.291803E-3,-7.884543E-3,1.6500852E-3,-6.742345E-3,9.712908E-3,2.5887932E-3],"split_indices":[4,2,3,0,1,2,2,0,0,0,0,0,0,0,0],"split_type":[0,0,0,0,0,0,0,0,0,0,0,0,0,0,0],"sum_hessian":[1.3703603E2,8.7154335E1,4.9881695E1,2.721346E1,5.9940876E1,1.6217424E1,3.366427E1,1.8230461E1,8.982999E0,4.3950615E1,1.5990259E1,1.0721114E1,5.4963098E0,9.7153E0,2.3948969E1],"tree_param":{"num_deleted":"0","num_feature":"11","num_nodes":"15","size_leaf_vector":"1"}},{"base_weights":[7.3152654E-2,2.9476598E-1,-1.2622263E-1,-0E0,5.2532345E-1,4.627519E-1,-1.8933146E-1,-1.6018361E-3,8.2439985E-3,2.2813154E-3,9.776465E-3,6.703473E-3,-0E0,-5.496089E-3,-4.6995937E-4],"categories":[],"categories_nodes":[],"categories_segments":[],"categories_sizes":[],"default_left":[0,0,0,0,0,0,0,0,0,0,0,0,0,0,0],"id":37,"left_children":[1,3,5,7,9,11,13,-1,-1,-1,-1,-1,-1,-1,-1],"loss_changes":[6.503383E0,4.939565E0,2.8075154E0,4.107599E0,4.424717E0,4.0999877E-1,3.2619312E0,0E0,0E0,0E0,0E0,0E0,0E0,0E0,0E0],"parents":[2147483647,0,0,1,1,2,2,3,3,4,4,5,5,6,6],"right_children":[2,4,6,8,10,12,14,-1,-1,-1,-1,-1,-1,-1,-1],"split_conditions":[1.2665857E-1,-1.4404175E0,-1.8341591E0,1.8950293E0,4.8409647E-1,-9.9204905E-2,-1.085241E0,-1.6018361E-3,8.2439985E-3,2.2813154E-3,9.776465E-3,6.703473E-3,-0E0,-5.496089E-3,-4.6995937E-4],"split_indices":[3,3,6,4,0,0,6,0,0,0,0,0,0,0,0],"split_type":[0,0,0,0,0,0,0,0,0,0,0,0,0,0,0],"sum_hessian":[1.4251755E2,6.8342445E1,7.41751E1,2.9953419E1,3.8389027E1,5.49261E0,6.8682495E1,2.6465387E1,3.4880311E0,2.5196192E1,1.3192833E1,2.744632E0,2.747978E0,1.7240002E1,5.144249E1],"tree_param":{"num_deleted":"0","num_feature":"11","num_nodes":"15","size_leaf_vector":"1"}},{"base_weights":[-0E0,1.6741504E-1,-2.612059E-1,3.590463E-2,5.405065E-1,-9.1479695E-1,-4.275242E-2,-3.0042577E-4,6.966276E-3,-2.864737E-3,7.050741E-3,-9.323445E-5,-9.662824E-3,8.3531823E-4,-4.630024E-3],"categories":[],"categories_nodes":[],"categories_segments":[],"categories_sizes":[],"default_left":[0,0,0,0,0,0,0,0,0,0,0,0,0,0,0],"id":38,"left_children":[1,3,5,7,9,11,13,-1,-1,-1,-1,-1,-1,-1,-1],"loss_changes":[6.286746E0,4.065099E0,7.3798637E0,3.355403E0,3.5309262E0,1.1610508E-1,2.567336E0,0E0,0E0,0E0,0E0,0E0,0E0,0E0,0E0],"parents":[2147483647,0,0,1,1,2,2,3,3,4,4,5,5,6,6],"right_children":[2,4,6,8,10,12,14,-1,-1,-1,-1,-1,-1,-1,-1],"split_conditions":[1.1337526E0,6.841742E-1,1.4985421E0,1.8913947E0,-2.148938E0,-1.8942467E0,2.798157E-1,-3.0042577E-4,6.966276E-3,-2.864737E-3,7.050741E-3,-9.323445E-5,-9.662824E-3,8.3531823E-4,-4.630024E-3],"split_indices":[3,0,3,6,3,5,1,0,0,0,0,0,0,0,0],"split_type":[0,0,0,0,0,0,0,0,0,0,0,0,0,0,0],"sum_hessian":[1.4176915E2,8.781779E1,5.395136E1,6.713721E1,2.068058E1,1.1744065E1,4.2207294E1,6.165812E1,5.4790897E0,2.7436857E0,1.7936895E1,1.2496483E0,1.0494417E1,3.246401E1,9.743285E0],"tree_param":{"num_deleted":"0","num_feature":"11","num_nodes":"15","size_leaf_vector":"1"}},{"base_weights":[6.250847E-2,4.0176776E-1,-2.3019223E-1,-4.2488266E-2,7.750395E-1,1.469351E-2,-5.3773254E-1,2.9463896E-3,-4.261277E-3,9.9150855E-3,1.4160655E-3,2.6430981E-3,-5.268548E-3,-7.868976E-3,-1.6808888E-3],"categories":[],"categories_nodes":[],"categories_segments":[],"categories_sizes":[],"default_left":[0,0,0,0,0,0,0,0,0,0,0,0,0,0,0],"id":39,"left_children":[1,3,5,7,9,11,13,-1,-1,-1,-1,-1,-1,-1,-1],"loss_changes":[1.303826E1,1.0548379E1,5.502694E0,3.9672284E0,3.8703518E0,5.3780136E0,2.2460527E0,0E0,0E0,0E0,0E0,0E0,0E0,0E0,0E0],"parents":[2147483647,0,0,1,1,2,2,3,3,4,4,5,5,6,6],"right_children":[2,4,6,8,10,12,14,-1,-1,-1,-1,-1,-1,-1,-1],"split_conditions":[1.2665857E-1,-1.4404175E0,-1.839181E-1,-1.9501969E0,6.730514E-1,3.670022E-1,1.6541656E0,2.9463896E-3,-4.261277E-3,9.9150855E-3,1.4160655E-3,2.6430981E-3,-5.268548E-3,-7.868976E-3,-1.6808888E-3],"split_indices":[3,3,8,3,1,0,3,0,0,0,0,0,0,0,0],"split_type":[0,0,0,0,0,0,0,0,0,0,0,0,0,0,0],"sum_hessian":[1.2753889E2,5.9603645E1,6.7935234E1,2.720951E1,3.2394135E1,3.7710194E1,3.0225042E1,1.3974207E1,1.3235304E1,2.2923111E1,9.4710245E0,2.697005E1,1.0740145E1,1.623541E1,1.3989632E1],"tree_param":{"num_deleted":"0","num_feature":"11","num_nodes":"15","size_leaf_vector":"1"}},{"base_weights":[-1.0310832E-2,-2.034917E-1,2.580104E-1,3.9942643E-1,-3.1169268E-1,-1.1878928E-1,4.311736E-1,8.217242E-3,-2.886224E-3,1.5736799E-3,-4.165035E-3,-4.2240666E-3,6.8805004E-3,5.0501483E-3,-4.4177757E-3],"categories":[],"categories_nodes":[],"categories_segments":[],"categories_sizes":[],"default_left":[0,0,0,0,0,0,0,0,0,0,0,0,0,0,0],"id":40,"left_children":[1,3,5,7,9,11,13,-1,-1,-1,-1,-1,-1,-1,-1],"loss_changes":[7.359934E0,5.616082E0,4.0563836E0,4.318227E0,3.8009315E0,4.888264E0,3.0336514E0,0E0,0E0,0E0,0E0,0E0,0E0,0E0,0E0],"parents":[2147483647,0,0,1,1,2,2,3,3,4,4,5,5,6,6],"right_children":[2,4,6,8,10,12,14,-1,-1,-1,-1,-1,-1,-1,-1],"split_conditions":[2.491453E-1,-1.6778007E0,-1.4404175E0,-1.3563792E0,-1.7397702E0,4.4057432E-1,2.7632103E0,8.217242E-3,-2.886224E-3,1.5736799E-3,-4.165035E-3,-4.2240666E-3,6.8805004E-3,5.0501483E-3,-4.4177757E-3],"split_indices":[4,4,3,5,6,9,3,0,0,0,0,0,0,0,0],"split_type":[0,0,0,0,0,0,0,0,0,0,0,0,0,0,0],"sum_hessian":[1.3949557E2,8.239804E1,5.7097538E1,1.1219936E1,7.11781E1,1.7217077E1,3.988046E1,7.2223854E0,3.997551E0,1.1991186E1,5.9186916E1,1.3479197E1,3.7378814E0,3.7881165E1,1.9992963E0],"tree_param":{"num_deleted":"0","num_feature":"11","num_nodes":"15","size_leaf_vector":"1"}},{"base_weights":[-7.5086853E-3,-3.058529E-1,9.702636E-2,5.616404E-1,-5.253132E-1,4.2312947E-1,-3.7791472E-2,8.161657E-3,-1.194593E-4,-2.1579543E-4,-7.7888533E-3,6.4121555E-3,-3.8163993E-3,1.3227753E-3,-2.6760106E-3],"categories":[],"categories_nodes":[],"categories_segments":[],"categories_sizes":[],"default_left":[0,0,0,0,0,0,0,0,0,0,0,0,0,0,0],"id":41,"left_children":[1,3,5,7,9,11,13,-1,-1,-1,-1,-1,-1,-1,-1],"loss_changes":[4.3978467E0,7.459335E0,4.6476717E0,1.544627E0,3.4993172E0,5.8827724E0,2.919089E0,0E0,0E0,0E0,0E0,0E0,0E0,0E0,0E0],"parents":[2147483647,0,0,1,1,2,2,3,3,4,4,5,5,6,6],"right_children":[2,4,6,8,10,12,14,-1,-1,-1,-1,-1,-1,-1,-1],"split_conditions":[-6.1001545E-1,-1.7718868E0,-7.555716E-2,1.4540575E0,-1.3091962E0,1.9580309E0,1.7453606E-1,8.161657E-3,-1.194593E-4,-2.1579543E-4,-7.7888533E-3,6.4121555E-3,-3.8163993E-3,1.3227753E-3,-2.6760106E-3],"split_indices":[1,4,1,2,1,3,2,0,0,0,0,0,0,0,0],"split_type":[0,0,0,0,0,0,0,0,0,0,0,0,0,0,0],"sum_hessian":[1.3473824E2,3.545204E1,9.9286194E1,6.2256994E0,2.9226341E1,2.9187397E1,7.00988E1,4.4765787E0,1.7491208E0,1.0991219E1,1.8235123E1,2.3692942E1,5.4944553E0,3.9401146E1,3.0697653E1],"tree_param":{"num_deleted":"0","num_feature":"11","num_nodes":"15","size_leaf_vector":"1"}},{"base_weights":[8.530944E-3,1.7829104E-1,-1.5664124E-1,4.1636485E-1,-2.7161226E-2,-2.7639022E-1,2.842691E-1,7.862338E-3,9.0390764E-4,-7.143949E-3,7.561424E-4,3.597229E-3,-3.5140186E-3,-2.7791858E-3,4.5916126E-3],"categories":[],"categories_nodes":[],"categories_segments":[],"categories_sizes":[],"default_left":[0,0,0,0,0,0,0,0,0,0,0,0,0,0,0],"id":42,"left_children":[1,3,5,7,9,11,13,-1,-1,-1,-1,-1,-1,-1,-1],"loss_changes":[3.9425797E0,3.6651936E0,3.789719E0,3.5455241E0,3.0971959E0,2.8767242E0,1.7290814E0,0E0,0E0,0E0,0E0,0E0,0E0,0E0,0E0],"parents":[2147483647,0,0,1,1,2,2,3,3,4,4,5,5,6,6],"right_children":[2,4,6,8,10,12,14,-1,-1,-1,-1,-1,-1,-1,-1],"split_conditions":[-2.5560728E-1,2.8090864E-1,1.2603981E0,-9.6700266E-2,5.9980315E-1,-1.635754E0,-1.6950291E0,7.862338E-3,9.0390764E-4,-7.143949E-3,7.561424E-4,3.597229E-3,-3.5140186E-3,-2.7791858E-3,4.5916126E-3],"split_indices":[9,2,9,4,2,4,2,0,0,0,0,0,0,0,0],"split_type":[0,0,0,0,0,0,0,0,0,0,0,0,0,0,0],"sum_hessian":[1.3722726E2,6.910785E1,6.8119415E1,3.242649E1,3.6681355E1,5.490203E1,1.3217383E1,1.3479773E1,1.8946718E1,4.24364E0,3.2437714E1,4.487575E0,5.0414455E1,2.2481647E0,1.0969218E1],"tree_param":{"num_deleted":"0","num_feature":"11","num_nodes":"15","size_leaf_vector":"1"}},{"base_weights":[1.3736624E-2,-5.4798737E-2,6.966104E-1,1.8398833E-1,-1.6710702E-1,8.96328E-1,-3.8897716E-3,-1.0320216E-3,5.6207315E-3,-2.5377576E-5,-3.5950649E-3,-0E0,1.08933505E-2],"categories":[],"categories_nodes":[],"categories_segments":[],"categories_sizes":[],"default_left":[0,0,0,0,0,0,0,0,0,0,0,0,0],"id":43,"left_children":[1,3,5,7,9,11,-1,-1,-1,-1,-1,-1,-1],"loss_changes":[6.8828683E0,3.4444659E0,3.6931143E0,4.6516695E0,2.6232426E0,2.604432E0,0E0,0E0,0E0,0E0,0E0,0E0,0E0],"parents":[2147483647,0,0,1,1,2,2,3,3,4,4,5,5],"right_children":[2,4,6,8,10,12,-1,-1,-1,-1,-1,-1,-1],"split_conditions":[1.8213184E0,-7.915821E-1,8.183785E-1,-1.2318811E0,1.5449795E-1,4.3038064E-1,-3.8897716E-3,-1.0320216E-3,5.6207315E-3,-2.5377576E-5,-3.5950649E-3,-0E0,1.08933505E-2],"split_indices":[6,7,0,7,6,4,0,0,0,0,0,0,0],"split_type":[0,0,0,0,0,0,0,0,0,0,0,0,0],"sum_hessian":[1.374864E2,1.2553476E2,1.1951635E1,3.8425667E1,8.71091E1,1.07044115E1,1.2472235E0,2.1706028E1,1.6719637E1,4.9169994E1,3.7939102E1,1.7468272E0,8.957584E0],"tree_param":{"num_deleted":"0","num_feature":"11","num_nodes":"13","size_leaf_vector":"1"}},{"base_weights":[-1.01811625E-2,2.562444E-1,-1.152842E-1,-1.7034997E-1,4.8284915E-1,6.031949E-1,-1.6836159E-1,2.253133E-3,-6.433677E-3,8.222818E-3,2.283582E-3,-0E0,8.155128E-3,-4.8942715E-3,-5.9864804E-5],"categories":[],"categories_nodes":[],"categories_segments":[],"categories_sizes":[],"default_left":[0,0,0,0,0,0,0,0,0,0,0,0,0,0,0],"id":44,"left_children":[1,3,5,7,9,11,13,-1,-1,-1,-1,-1,-1,-1,-1],"loss_changes":[3.7394273E0,3.8720026E0,3.7031674E0,2.90354E0,1.3894229E0,9.580569E-1,4.639885E0,0E0,0E0,0E0,0E0,0E0,0E0,0E0,0E0],"parents":[2147483647,0,0,1,1,2,2,3,3,4,4,5,5,6,6],"right_children":[2,4,6,8,10,12,14,-1,-1,-1,-1,-1,-1,-1,-1],"split_conditions":[-8.857458E-1,-5.3619725E-1,-1.9894568E0,-1.4416733E-1,-8.308821E-2,-1.7522684E0,-4.7268304E-1,2.253133E-3,-6.433677E-3,8.222818E-3,2.283582E-3,-0E0,8.155128E-3,-4.8942715E-3,-5.9864804E-5],"split_indices":[7,4,4,9,1,1,1,0,0,0,0,0,0,0,0],"split_type":[0,0,0,0,0,0,0,0,0,0,0,0,0,0,0],"sum_hessian":[1.3297533E2,3.566185E1,9.731347E1,1.1735361E1,2.392649E1,4.9769125E0,9.2336555E1,6.2423267E0,5.4930344E0,7.9764276E0,1.5950063E1,1.4929447E0,3.4839675E0,2.8964422E1,6.3372135E1],"tree_param":{"num_deleted":"0","num_feature":"11","num_nodes":"15","size_leaf_vector":"1"}},{"base_weights":[3.562602E-2,2.8628126E-1,-9.8384224E-2,7.6982063E-1,-2.9389845E-2,-1.7322882E-1,4.0258917E-1,-0E0,1.0219767E-2,3.1852785E-3,-4.903854E-3,-9.0067607E-4,-9.673117E-3,9.024388E-3,-5.6121415E-3],"categories":[],"categories_nodes":[],"categories_segments":[],"categories_sizes":[],"default_left":[0,0,0,0,0,0,0,0,0,0,0,0,0,0,0],"id":45,"left_children":[1,3,5,7,9,11,13,-1,-1,-1,-1,-1,-1,-1,-1],"loss_changes":[4.854328E0,8.130363E0,3.414866E0,3.8680649E0,5.3634596E0,4.7152176E0,6.4491725E0,0E0,0E0,0E0,0E0,0E0,0E0,0E0,0E0],"parents":[2147483647,0,0,1,1,2,2,3,3,4,4,5,5,6,6],"right_children":[2,4,6,8,10,12,14,-1,-1,-1,-1,-1,-1,-1,-1],"split_conditions":[-7.834998E-1,1.9487962E-2,1.8913947E0,-3.8826364E-1,-8.347525E-3,1.5043821E0,2.6592588E0,-0E0,1.0219767E-2,3.1852785E-3,-4.903854E-3,-9.0067607E-4,-9.673117E-3,9.024388E-3,-5.6121415E-3],"split_indices":[2,8,6,0,9,5,2,0,0,0,0,0,0,0,0],"split_type":[0,0,0,0,0,0,0,0,0,0,0,0,0,0,0],"sum_hessian":[1.3896083E2,4.9117405E1,8.984343E1,1.9173573E1,2.9943832E1,7.988772E1,9.955712E0,5.23968E0,1.3933892E1,1.6710909E1,1.32329235E1,7.439628E1,5.491441E0,6.960253E0,2.9954593E0],"tree_param":{"num_deleted":"0","num_feature":"11","num_nodes":"15","size_leaf_vector":"1"}},{"base_weights":[-5.619059E-2,9.075024E-2,-2.0230116E-1,1.9939661E-2,9.714963E-3,-6.0238737E-1,-1.8889628E-2,1.2911861E-3,-4.2903516E-3,3.0708765E-3,-7.0098387E-3,5.4123406E-3,-2.4076784E-3],"categories":[],"categories_nodes":[],"categories_segments":[],"categories_sizes":[],"default_left":[0,0,0,0,0,0,0,0,0,0,0,0,0],"id":46,"left_children":[1,3,5,7,-1,9,11,-1,-1,-1,-1,-1,-1],"loss_changes":[3.1737266E0,3.9092827E0,5.1278644E0,3.2597027E0,0E0,2.5342083E0,6.679569E0,0E0,0E0,0E0,0E0,0E0,0E0],"parents":[2147483647,0,0,1,1,2,2,3,3,5,5,6,6],"right_children":[2,4,6,8,-1,10,12,-1,-1,-1,-1,-1,-1],"split_conditions":[-1.2190391E-1,1.2422479E0,3.723366E-1,7.2361976E-1,9.714963E-3,-1.9392219E0,-5.287183E-1,1.2911861E-3,-4.2903516E-3,3.0708765E-3,-7.0098387E-3,5.4123406E-3,-2.4076784E-3],"split_indices":[7,0,7,5,0,5,0,0,0,0,0,0,0],"split_type":[0,0,0,0,0,0,0,0,0,0,0,0,0],"sum_hessian":[1.424436E2,6.95972E1,7.2846405E1,6.636335E1,3.2338479E0,2.0963932E1,5.1882473E1,5.5137596E1,1.1225753E1,1.2441908E0,1.971974E1,1.3468711E1,3.8413765E1],"tree_param":{"num_deleted":"0","num_feature":"11","num_nodes":"13","size_leaf_vector":"1"}},{"base_weights":[3.1206354E-2,8.364589E-1,-5.4810736E-3,9.4204135E-3,-0E0,3.8999237E-2,-4.5743912E-1,-3.023873E-4,2.9359767E-3,-0E0,-9.874557E-3],"categories":[],"categories_nodes":[],"categories_segments":[],"categories_sizes":[],"default_left":[0,0,0,0,0,0,0,0,0,0,0],"id":47,"left_children":[1,3,5,-1,-1,7,9,-1,-1,-1,-1],"loss_changes":[4.74091E0,2.0182133E-1,3.064637E0,0E0,0E0,2.4097283E0,3.2154765E0,0E0,0E0,0E0,0E0],"parents":[2147483647,0,0,1,1,2,2,5,5,6,6],"right_children":[2,4,6,-1,-1,8,10,-1,-1,-1,-1],"split_conditions":[-1.9894568E0,2.0975115E0,1.7167894E0,9.4204135E-3,-0E0,6.841742E-1,2.855427E-1,-3.023873E-4,2.9359767E-3,-0E0,-9.874557E-3],"split_indices":[4,3,8,0,0,0,0,0,0,0,0],"split_type":[0,0,0,0,0,0,0,0,0,0,0],"sum_hessian":[1.4468E2,5.4734063E0,1.3920659E2,4.225287E0,1.2481194E0,1.2697443E2,1.22321615E1,9.932185E1,2.7652578E1,7.487537E0,4.7446246E0],"tree_param":{"num_deleted":"0","num_feature":"11","num_nodes":"11","size_leaf_vector":"1"}},{"base_weights":[4.4103123E-2,7.956873E-2,-7.761858E-1,-3.1939283E-1,1.4709216E-1,-9.947723E-3,-2.789882E-4,1.2753134E-3,-8.028585E-3,3.1625428E-3,-5.316273E-4],"categories":[],"categories_nodes":[],"categories_segments":[],"categories_sizes":[],"default_left":[0,0,0,0,0,0,0,0,0,0,0],"id":48,"left_children":[1,3,5,7,9,-1,-1,-1,-1,-1,-1],"loss_changes":[3.73603E0,3.5798397E0,3.0438662E-1,4.5362334E0,4.094701E0,0E0,0E0,0E0,0E0,0E0,0E0],"parents":[2147483647,0,0,1,1,2,2,3,3,4,4],"right_children":[2,4,6,8,10,-1,-1,-1,-1,-1,-1],"split_conditions":[2.6397967E0,-1.0274677E0,2.3690324E0,-1.2670438E0,3.1384668E-1,-9.947723E-3,-2.789882E-4,1.2753134E-3,-8.028585E-3,3.1625428E-3,-5.316273E-4],"split_indices":[2,0,6,0,2,0,0,0,0,0,0],"split_type":[0,0,0,0,0,0,0,0,0,0,0],"sum_hessian":[1.3570929E2,1.3196765E2,3.7416472E0,1.72205E1,1.1474715E2,1.9962263E0,1.7454209E0,8.98486E0,8.2356415E0,6.3085014E1,5.1662132E1],"tree_param":{"num_deleted":"0","num_feature":"11","num_nodes":"11","size_leaf_vector":"1"}},{"base_weights":[-2.936071E-2,-3.8865817E-1,1.1995641E-1,3.4446132E-1,-5.845704E-1,-2.0282038E-2,3.837653E-1,6.9072E-3,-5.4069964E-4,-0E0,-8.235784E-3,-5.1947366E-3,1.5598009E-3,8.610978E-3,1.3607802E-3],"categories":[],"categories_nodes":[],"categories_segments":[],"categories_sizes":[],"default_left":[0,0,0,0,0,0,0,0,0,0,0,0,0,0,0],"id":49,"left_children":[1,3,5,7,9,11,13,-1,-1,-1,-1,-1,-1,-1,-1],"loss_changes":[8.033299E0,6.767296E0,4.013318E0,1.7159141E0,4.8162823E0,6.251461E0,3.717824E0,0E0,0E0,0E0,0E0,0E0,0E0,0E0,0E0],"parents":[2147483647,0,0,1,1,2,2,3,3,4,4,5,5,6,6],"right_children":[2,4,6,8,10,12,14,-1,-1,-1,-1,-1,-1,-1,-1],"split_conditions":[-6.1001545E-1,-1.5926031E0,7.8073245E-1,-6.2054515E-1,-7.21654E-1,-3.8555178E-1,1.2559975E0,6.9072E-3,-5.4069964E-4,-0E0,-8.235784E-3,-5.1947366E-3,1.5598009E-3,8.610978E-3,1.3607802E-3],"split_indices":[1,4,6,0,2,0,6,0,0,0,0,0,0,0,0],"split_type":[0,0,0,0,0,0,0,0,0,0,0,0,0,0,0],"sum_hessian":[1.4442961E2,4.2678295E1,1.0175132E2,8.221868E0,3.445643E1,6.610165E1,3.5649677E1,4.4823217E0,3.7395458E0,1.0740639E1,2.3715788E1,1.722753E1,4.8874115E1,1.0220211E1,2.5429466E1],"tree_param":{"num_deleted":"0","num_feature":"11","num_nodes":"15","size_leaf_vector":"1"}},{"base_weights":[-3.7166692E-2,-1.7430736E-1,8.104929E-2,3.3309332E-1,-2.8638083E-1,-1.9859079E-1,2.01744E-1,-4.425367E-4,6.4807646E-3,-9.1180584E-5,-6.4517907E-3,-4.256049E-3,6.137275E-3,6.0020345E-3,7.575777E-4],"categories":[],"categories_nodes":[],"categories_segments":[],"categories_sizes":[],"default_left":[0,0,0,0,0,0,0,0,0,0,0,0,0,0,0],"id":50,"left_children":[1,3,5,7,9,11,13,-1,-1,-1,-1,-1,-1,-1,-1],"loss_changes":[2.3689191E0,3.9947417E0,2.6029065E0,1.7967194E0,5.377064E0,4.3928423E0,2.3340867E0,0E0,0E0,0E0,0E0,0E0,0E0,0E0,0E0],"parents":[2147483647,0,0,1,1,2,2,3,3,4,4,5,5,6,6],"right_children":[2,4,6,8,10,12,14,-1,-1,-1,-1,-1,-1,-1,-1],"split_conditions":[-1.4573354E-1,-1.6778007E0,-1.4404175E0,-3.3894956E-2,-2.1315543E-1,4.4057432E-1,-1.0432357E0,-4.425367E-4,6.4807646E-3,-9.1180584E-5,-6.4517907E-3,-4.256049E-3,6.137275E-3,6.0020345E-3,7.575777E-4],"split_indices":[4,4,3,9,9,9,2,0,0,0,0,0,0,0,0],"split_type":[0,0,0,0,0,0,0,0,0,0,0,0,0,0,0],"sum_hessian":[1.4043607E2,6.664267E1,7.379339E1,1.0714482E1,5.5928192E1,2.070674E1,5.308665E1,4.739033E0,5.975449E0,3.320249E1,2.2725697E1,1.7223106E1,3.4836333E0,1.0443144E1,4.2643505E1],"tree_param":{"num_deleted":"0","num_feature":"11","num_nodes":"15","size_leaf_vector":"1"}},{"base_weights":[-7.523396E-2,-2.3663959E-1,1.2246782E-1,4.6787527E-1,-3.2902062E-1,1.9660726E-1,-5.195475E-1,1.017699E-2,-3.3765482E-3,-3.8271773E-4,-6.5104323E-3,-6.0279545E-4,3.6450203E-3,-1.0633664E-2,4.366437E-3],"categories":[],"categories_nodes":[],"categories_segments":[],"categories_sizes":[],"default_left":[0,0,0,0,0,0,0,0,0,0,0,0,0,0,0],"id":51,"left_children":[1,3,5,7,9,11,13,-1,-1,-1,-1,-1,-1,-1,-1],"loss_changes":[4.605588E0,5.343964E0,2.992877E0,4.9402533E0,6.3502674E0,2.6999667E0,4.2550664E0,0E0,0E0,0E0,0E0,0E0,0E0,0E0,0E0],"parents":[2147483647,0,0,1,1,2,2,3,3,4,4,5,5,6,6],"right_children":[2,4,6,8,10,12,14,-1,-1,-1,-1,-1,-1,-1,-1],"split_conditions":[1.8585083E-1,-1.7187803E0,1.524998E0,-1.3563792E0,-2.0983617E-1,-4.058802E-1,1.1733387E0,1.017699E-2,-3.3765482E-3,-3.8271773E-4,-6.5104323E-3,-6.0279545E-4,3.6450203E-3,-1.0633664E-2,4.366437E-3],"split_indices":[4,4,0,5,9,7,9,0,0,0,0,0,0,0,0],"split_type":[0,0,0,0,0,0,0,0,0,0,0,0,0,0,0],"sum_hessian":[1.3967848E2,7.8127815E1,6.1550667E1,7.722823E0,7.0405E1,5.6809765E1,4.740902E0,4.7240157E0,2.9988072E0,3.869704E1,3.1707954E1,2.1656979E1,3.5152786E1,3.2482753E0,1.4926264E0],"tree_param":{"num_deleted":"0","num_feature":"11","num_nodes":"15","size_leaf_vector":"1"}},{"base_weights":[-4.4508684E-2,1.4833218E-1,-2.3568703E-1,-1.6067268E-1,4.1954994E-1,5.230667E-1,-3.007678E-1,9.085236E-4,-7.863873E-3,1.5913473E-3,1.0577478E-2,9.386989E-3,-1.6101338E-3,-5.2708597E-3,-8.070237E-4],"categories":[],"categories_nodes":[],"categories_segments":[],"categories_sizes":[],"default_left":[0,0,0,0,0,0,0,0,0,0,0,0,0,0,0],"id":52,"left_children":[1,3,5,7,9,11,13,-1,-1,-1,-1,-1,-1,-1,-1],"loss_changes":[5.3462987E0,6.140221E0,3.7490506E0,5.677544E0,5.592578E0,2.247201E0,3.0765715E0,0E0,0E0,0E0,0E0,0E0,0E0,0E0,0E0],"parents":[2147483647,0,0,1,1,2,2,3,3,4,4,5,5,6,6],"right_children":[2,4,6,8,10,12,14,-1,-1,-1,-1,-1,-1,-1,-1],"split_conditions":[1.2665857E-1,-1.4404175E0,-1.7522684E0,-7.834998E-1,6.841742E-1,-7.3633045E-1,1.578482E0,9.085236E-4,-7.863873E-3,1.5913473E-3,1.0577478E-2,9.386989E-3,-1.6101338E-3,-5.2708597E-3,-8.070237E-4],"split_indices":[3,3,1,2,0,0,3,0,0,0,0,0,0,0,0],"split_type":[0,0,0,0,0,0,0,0,0,0,0,0,0,0,0],"sum_hessian":[1.4090872E2,6.901469E1,7.189403E1,3.1684092E1,3.7330593E1,4.2386417E0,6.765539E1,2.294412E1,8.73997E0,2.8399658E1,8.930936E0,2.7440286E0,1.4946133E0,3.1202047E1,3.645334E1],"tree_param":{"num_deleted":"0","num_feature":"11","num_nodes":"15","size_leaf_vector":"1"}},{"base_weights":[2.6283257E-2,6.3060366E-2,-4.849603E-1,4.910954E-1,1.2900895E-2,-8.935422E-1,-0E0,-8.188179E-4,6.8713007E-3,-1.54837E-4,6.249385E-3,-1.054448E-2,-4.0244064E-5,-3.948918E-3,6.5859626E-3],"categories":[],"categories_nodes":[],"categories_segments":[],"categories_sizes":[],"default_left":[0,0,0,0,0,0,0,0,0,0,0,0,0,0,0],"id":53,"left_children":[1,3,5,7,9,11,13,-1,-1,-1,-1,-1,-1,-1,-1],"loss_changes":[2.4892025E0,2.6140985E0,1.9331071E0,1.8430567E0,2.446892E0,1.791687E-1,1.812684E0,0E0,0E0,0E0,0E0,0E0,0E0,0E0,0E0],"parents":[2147483647,0,0,1,1,2,2,3,3,4,4,5,5,6,6],"right_children":[2,4,6,8,10,12,14,-1,-1,-1,-1,-1,-1,-1,-1],"split_conditions":[2.2222226E0,-1.4100863E0,-9.289315E-1,-1.6348101E0,2.6105518E0,1.1890119E0,-1.8964738E0,-8.188179E-4,6.8713007E-3,-1.54837E-4,6.249385E-3,-1.054448E-2,-4.0244064E-5,-3.948918E-3,6.5859626E-3],"split_indices":[8,1,1,3,3,9,3,0,0,0,0,0,0,0,0],"split_type":[0,0,0,0,0,0,0,0,0,0,0,0,0,0,0],"sum_hessian":[1.3966963E2,1.3243565E2,7.23398E0,1.1462905E1,1.2097274E2,3.493904E0,3.740076E0,2.4945729E0,8.968332E0,1.1622755E2,4.7452006E0,2.2471836E0,1.2467206E0,2.498487E0,1.241589E0],"tree_param":{"num_deleted":"0","num_feature":"11","num_nodes":"15","size_leaf_vector":"1"}},{"base_weights":[-2.0538274E-2,-2.2398324E-1,2.517695E-1,6.2492096E-1,-2.99986E-1,3.9167035E-1,1.3075457E-2,8.5563E-3,-0E0,-2.014905E-3,-7.5673624E-3,2.0037682E-3,9.51038E-3,2.299772E-3,-7.7311317E-3],"categories":[],"categories_nodes":[],"categories_segments":[],"categories_sizes":[],"default_left":[0,0,0,0,0,0,0,0,0,0,0,0,0,0,0],"id":54,"left_children":[1,3,5,7,9,11,13,-1,-1,-1,-1,-1,-1,-1,-1],"loss_changes":[7.86132E0,5.430922E0,1.7865665E0,1.2053566E0,2.761794E0,3.0252352E0,4.2525997E0,0E0,0E0,0E0,0E0,0E0,0E0,0E0,0E0],"parents":[2147483647,0,0,1,1,2,2,3,3,4,4,5,5,6,6],"right_children":[2,4,6,8,10,12,14,-1,-1,-1,-1,-1,-1,-1,-1],"split_conditions":[2.491453E-1,-1.9894568E0,4.2397997E-1,5.662333E-1,5.84556E-1,1.5921797E0,2.004561E0,8.5563E-3,-0E0,-2.014905E-3,-7.5673624E-3,2.0037682E-3,9.51038E-3,2.299772E-3,-7.7311317E-3],"split_indices":[4,4,3,9,1,6,6,0,0,0,0,0,0,0,0],"split_type":[0,0,0,0,0,0,0,0,0,0,0,0,0,0,0],"sum_hessian":[1.3912589E2,8.083515E1,5.829073E1,5.211679E0,7.5623474E1,3.4823994E1,2.3466736E1,3.7266483E0,1.4850309E0,6.488731E1,1.0736171E1,2.8133907E1,6.690086E0,1.9722647E1,3.7440884E0],"tree_param":{"num_deleted":"0","num_feature":"11","num_nodes":"15","size_leaf_vector":"1"}},{"base_weights":[-2.2196366E-2,-1.5634847E-1,2.2940813E-1,2.3847094E-1,-2.2390133E-1,-3.0361134E-1,3.3805054E-1,-3.7429836E-3,4.746099E-3,-5.4474245E-3,-4.488351E-4,-8.119563E-3,1.2434338E-3,5.344E-3,-2.619191E-4],"categories":[],"categories_nodes":[],"categories_segments":[],"categories_sizes":[],"default_left":[0,0,0,0,0,0,0,0,0,0,0,0,0,0,0],"id":55,"left_children":[1,3,5,7,9,11,13,-1,-1,-1,-1,-1,-1,-1,-1],"loss_changes":[4.797578E0,2.5948641E0,2.9834323E0,2.2643309E0,4.412791E0,2.2864494E0,3.2667484E0,0E0,0E0,0E0,0E0,0E0,0E0,0E0,0E0],"parents":[2147483647,0,0,1,1,2,2,3,3,4,4,5,5,6,6],"right_children":[2,4,6,8,10,12,14,-1,-1,-1,-1,-1,-1,-1,-1],"split_conditions":[5.969185E-1,-1.506608E0,-8.500064E-1,-2.2415104E0,-6.1001545E-1,6.6946405E-1,1.5043821E0,-3.7429836E-3,4.746099E-3,-5.4474245E-3,-4.488351E-4,-8.119563E-3,1.2434338E-3,5.344E-3,-2.619191E-4],"split_indices":[4,1,9,1,1,8,5,0,0,0,0,0,0,0,0],"split_type":[0,0,0,0,0,0,0,0,0,0,0,0,0,0,0],"sum_hessian":[1.4012497E2,9.306116E1,4.706381E1,1.1960428E1,8.110073E1,6.7335668E0,4.0330242E1,2.49389E0,9.466538E0,2.6947378E1,5.415335E1,2.99654E0,3.7370267E0,2.6641037E1,1.3689206E1],"tree_param":{"num_deleted":"0","num_feature":"11","num_nodes":"15","size_leaf_vector":"1"}},{"base_weights":[-1.4916242E-2,-5.1730275E-2,9.481419E-3,-4.727074E-1,5.3534098E-2,-2.0185076E-3,-1.1226614E-2,3.2539081E-3,-7.017911E-4],"categories":[],"categories_nodes":[],"categories_segments":[],"categories_sizes":[],"default_left":[0,0,0,0,0,0,0,0,0],"id":56,"left_children":[1,3,-1,5,7,-1,-1,-1,-1],"loss_changes":[4.5842557E0,6.3026295E0,0E0,4.0036607E0,3.851511E0,0E0,0E0,0E0,0E0],"parents":[2147483647,0,0,1,1,3,3,4,4],"right_children":[2,4,-1,6,8,-1,-1,-1,-1],"split_conditions":[2.023167E0,-1.4404175E0,9.481419E-3,-7.21654E-1,1.2665857E-1,-2.0185076E-3,-1.1226614E-2,3.2539081E-3,-7.017911E-4],"split_indices":[4,3,0,2,3,0,0,0,0],"split_type":[0,0,0,0,0,0,0,0,0],"sum_hessian":[1.3836807E2,1.3514076E2,3.2273073E0,2.6935057E1,1.0820571E2,2.0942694E1,5.9923615E0,3.434022E1,7.3865486E1],"tree_param":{"num_deleted":"0","num_feature":"11","num_nodes":"9","size_leaf_vector":"1"}},{"base_weights":[6.403824E-2,-1.9972953E-1,1.382661E-1,-3.377443E-1,5.4391587E-1,3.208396E-1,-3.8729243E-2,-1.6542058E-3,-1.031951E-2,9.089094E-3,-3.4313797E-4,4.6476107E-3,-1.4903765E-3,-6.892697E-3,3.379469E-4],"categories":[],"categories_nodes":[],"categories_segments":[],"categories_sizes":[],"default_left":[0,0,0,0,0,0,0,0,0,0,0,0,0,0,0],"id":57,"left_children":[1,3,5,7,9,11,13,-1,-1,-1,-1,-1,-1,-1,-1],"loss_changes":[2.7786012E0,3.2700968E0,3.8012545E0,2.3691401E0,1.4827837E0,4.117989E0,3.059818E0,0E0,0E0,0E0,0E0,0E0,0E0,0E0,0E0],"parents":[2147483647,0,0,1,1,2,2,3,3,4,4,5,5,6,6],"right_children":[2,4,6,8,10,12,14,-1,-1,-1,-1,-1,-1,-1,-1],"split_conditions":[-1.4404175E0,1.8950293E0,1.1337526E0,1.3760123E0,-1.7845078E0,1.3419198E0,1.2443058E0,-1.6542058E-3,-1.031951E-2,9.089094E-3,-3.4313797E-4,4.6476107E-3,-1.4903765E-3,-6.892697E-3,3.379469E-4],"split_indices":[3,4,3,4,3,6,3,0,0,0,0,0,0,0,0],"split_type":[0,0,0,0,0,0,0,0,0,0,0,0,0,0,0],"sum_hessian":[1.3987193E2,2.8681263E1,1.1119067E2,2.5449194E1,3.232069E0,5.552334E1,5.5667324E1,2.245327E1,2.9959242E0,1.9855943E0,1.2464747E0,4.3331516E1,1.2191824E1,4.9955363E0,5.0671787E1],"tree_param":{"num_deleted":"0","num_feature":"11","num_nodes":"15","size_leaf_vector":"1"}},{"base_weights":[8.9951225E-2,-7.87132E-2,3.359901E-1,1.4752984E-1,-3.355014E-1,-2.6106387E-1,4.5866907E-1,-2.5473247E-4,9.81899E-3,1.736114E-3,-4.3408102E-3,-6.6550313E-3,1.0711004E-3,5.4021836E-3,-1.5663459E-3],"categories":[],"categories_nodes":[],"categories_segments":[],"categories_sizes":[],"default_left":[0,0,0,0,0,0,0,0,0,0,0,0,0,0,0],"id":58,"left_children":[1,3,5,7,9,11,13,-1,-1,-1,-1,-1,-1,-1,-1],"loss_changes":[5.682413E0,4.748777E0,4.345959E0,6.5670304E0,2.171616E0,1.8344779E0,2.6924124E0,0E0,0E0,0E0,0E0,0E0,0E0,0E0,0E0],"parents":[2147483647,0,0,1,1,2,2,3,3,4,4,5,5,6,6],"right_children":[2,4,6,8,10,12,14,-1,-1,-1,-1,-1,-1,-1,-1],"split_conditions":[2.4052793E-1,-8.1054914E-1,-8.500064E-1,-1.0221946E0,-1.1667668E0,-4.2239377E-1,1.5871471E0,-2.5473247E-4,9.81899E-3,1.736114E-3,-4.3408102E-3,-6.6550313E-3,1.0711004E-3,5.4021836E-3,-1.5663459E-3],"split_indices":[4,6,9,6,2,8,0,0,0,0,0,0,0,0,0],"split_type":[0,0,0,0,0,0,0,0,0,0,0,0,0,0,0],"sum_hessian":[1.3137637E2,7.734369E1,5.403268E1,4.0421474E1,3.6922215E1,8.226793E0,4.5805885E1,3.4187737E1,6.23374E0,4.9815173E0,3.1940699E1,3.9902205E0,4.236573E0,4.132458E1,4.4813056E0],"tree_param":{"num_deleted":"0","num_feature":"11","num_nodes":"15","size_leaf_vector":"1"}},{"base_weights":[-4.7722872E-2,2.690769E-1,-1.7578654E-1,5.368575E-1,-1.387603E-1,-2.5351536E-1,2.4280071E-1,2.1986635E-3,9.268681E-3,-4.126558E-3,5.6429794E-3,-1.8759425E-3,-1.1548626E-2,8.908391E-3,-1.2674783E-3],"categories":[],"categories_nodes":[],"categories_segments":[],"categories_sizes":[],"default_left":[0,0,0,0,0,0,0,0,0,0,0,0,0,0,0],"id":59,"left_children":[1,3,5,7,9,11,13,-1,-1,-1,-1,-1,-1,-1,-1],"loss_changes":[5.7899776E0,4.720684E0,3.4565763E0,2.2640347E0,3.442368E0,4.2806134E0,4.365537E0,0E0,0E0,0E0,0E0,0E0,0E0,0E0,0E0],"parents":[2147483647,0,0,1,1,2,2,3,3,4,4,5,5,6,6],"right_children":[2,4,6,8,10,12,14,-1,-1,-1,-1,-1,-1,-1,-1],"split_conditions":[-7.915821E-1,-1.1906012E-1,1.6600299E0,-1.2318811E0,-1.0058813E0,1.5043821E0,-5.264556E-1,2.1986635E-3,9.268681E-3,-4.126558E-3,5.6429794E-3,-1.8759425E-3,-1.1548626E-2,8.908391E-3,-1.2674783E-3],"split_indices":[7,9,5,7,7,5,9,0,0,0,0,0,0,0,0],"split_type":[0,0,0,0,0,0,0,0,0,0,0,0,0,0,0],"sum_hessian":[1.4061475E2,3.8879616E1,1.0173514E2,2.3923325E1,1.4956292E1,8.7308556E1,1.4426581E1,1.5198216E1,8.725108E0,1.1720869E1,3.2354224E0,8.356392E1,3.7446325E0,4.962118E0,9.464463E0],"tree_param":{"num_deleted":"0","num_feature":"11","num_nodes":"15","size_leaf_vector":"1"}},{"base_weights":[1.1357217E-2,6.1054784E-1,-2.489281E-2,8.647334E-1,-1.8373287E-3,-7.441346E-2,5.6434655E-1,-1.248673E-4,1.1133992E-2,-0E0,-3.5170987E-3,9.177847E-3,-2.0642134E-3],"categories":[],"categories_nodes":[],"categories_segments":[],"categories_sizes":[],"default_left":[0,0,0,0,0,0,0,0,0,0,0,0,0],"id":60,"left_children":[1,3,5,7,-1,9,11,-1,-1,-1,-1,-1,-1],"loss_changes":[3.5099356E0,2.443345E0,3.8835495E0,2.2587905E0,0E0,2.7013264E0,3.4167721E0,0E0,0E0,0E0,0E0,0E0,0E0],"parents":[2147483647,0,0,1,1,2,2,3,3,5,5,6,6],"right_children":[2,4,6,8,-1,10,12,-1,-1,-1,-1,-1,-1],"split_conditions":[-2.0622578E0,-5.098391E-1,1.7904934E0,-2.2044406E0,-1.8373287E-3,6.8004555E-1,2.0881488E0,-1.248673E-4,1.1133992E-2,-0E0,-3.5170987E-3,9.177847E-3,-2.0642134E-3],"split_indices":[6,4,4,1,0,1,5,0,0,0,0,0,0],"split_type":[0,0,0,0,0,0,0,0,0,0,0,0,0],"sum_hessian":[1.4556313E2,7.735137E0,1.3782799E2,6.2359576E0,1.4991796E0,1.2913443E2,8.693551E0,1.2478514E0,4.9881063E0,1.029489E2,2.618554E1,6.2089906E0,2.48456E0],"tree_param":{"num_deleted":"0","num_feature":"11","num_nodes":"13","size_leaf_vector":"1"}},{"base_weights":[1.8153861E-2,6.324198E-1,-3.168393E-2,1.1296332E0,-1.0204866E-1,-5.262749E-1,4.4852193E-2,1.3049958E-2,-0E0,-7.022246E-3,3.992716E-3,2.1564737E-3,-7.111333E-3,8.005404E-3,1.11585205E-5],"categories":[],"categories_nodes":[],"categories_segments":[],"categories_sizes":[],"default_left":[0,0,0,0,0,0,0,0,0,0,0,0,0,0,0],"id":61,"left_children":[1,3,5,7,9,11,13,-1,-1,-1,-1,-1,-1,-1,-1],"loss_changes":[4.566272E0,4.7797523E0,5.1462936E0,9.590759E-1,2.2251747E0,2.9786296E0,3.2969763E0,0E0,0E0,0E0,0E0,0E0,0E0,0E0,0E0],"parents":[2147483647,0,0,1,1,2,2,3,3,4,4,5,5,6,6],"right_children":[2,4,6,8,10,12,14,-1,-1,-1,-1,-1,-1,-1,-1],"split_conditions":[-1.7115217E0,-1.4155416E0,-1.1130162E0,2.4920084E0,-2.3055989E-1,-1.4193823E0,-1.7130109E0,1.3049958E-2,-0E0,-7.022246E-3,3.992716E-3,2.1564737E-3,-7.111333E-3,8.005404E-3,1.11585205E-5],"split_indices":[4,5,4,8,9,8,5,0,0,0,0,0,0,0,0],"split_type":[0,0,0,0,0,0,0,0,0,0,0,0,0,0,0],"sum_hessian":[1.3686462E2,9.708057E0,1.2715657E2,5.713744E0,3.9943128E0,1.6734386E1,1.1042218E2,4.468434E0,1.2453107E0,1.9982576E0,1.9960551E0,2.748555E0,1.3985832E1,3.995694E0,1.0642649E2],"tree_param":{"num_deleted":"0","num_feature":"11","num_nodes":"15","size_leaf_vector":"1"}},{"base_weights":[-4.5950178E-2,-5.127118E-1,4.812203E-2,4.174318E-1,-6.894332E-1,3.1154716E-1,-1.08925715E-1,-0E0,5.153731E-3,-8.70039E-3,4.0027985E-4,1.1111829E-2,1.6167323E-3,-4.529597E-3,2.6743565E-4],"categories":[],"categories_nodes":[],"categories_segments":[],"categories_sizes":[],"default_left":[0,0,0,0,0,0,0,0,0,0,0,0,0,0,0],"id":62,"left_children":[1,3,5,7,9,11,13,-1,-1,-1,-1,-1,-1,-1,-1],"loss_changes":[6.529975E0,4.6666408E0,5.081301E0,8.0813706E-2,3.3620071E0,4.6164026E0,3.7116628E0,0E0,0E0,0E0,0E0,0E0,0E0,0E0,0E0],"parents":[2147483647,0,0,1,1,2,2,3,3,4,4,5,5,6,6],"right_children":[2,4,6,8,10,12,14,-1,-1,-1,-1,-1,-1,-1,-1],"split_conditions":[-1.1130162E0,-2.1432881E0,-7.21654E-1,-2.0209513E0,1.5956264E0,-8.087419E-1,-3.6949438E-1,-0E0,5.153731E-3,-8.70039E-3,4.0027985E-4,1.1111829E-2,1.6167323E-3,-4.529597E-3,2.6743565E-4],"split_indices":[4,4,2,5,2,4,4,0,0,0,0,0,0,0,0],"split_type":[0,0,0,0,0,0,0,0,0,0,0,0,0,0,0],"sum_hessian":[1.410819E2,2.3436401E1,1.176455E2,2.9639096E0,2.047249E1,4.4578884E1,7.306661E1,1.2311678E0,1.7327418E0,1.6727364E1,3.7451284E0,4.991259E0,3.9587624E1,2.0714806E1,5.235181E1],"tree_param":{"num_deleted":"0","num_feature":"11","num_nodes":"15","size_leaf_vector":"1"}},{"base_weights":[-3.0832367E-2,-3.5951516E-1,5.1768515E-2,-0E0,-7.7822465E-1,3.2603642E-1,-9.1966026E-2,3.748977E-3,-5.8541195E-3,-1.5597015E-3,-9.222609E-3,1.0288516E-3,9.040669E-3,6.658089E-3,-1.8517657E-3],"categories":[],"categories_nodes":[],"categories_segments":[],"categories_sizes":[],"default_left":[0,0,0,0,0,0,0,0,0,0,0,0,0,0,0],"id":63,"left_children":[1,3,5,7,9,11,13,-1,-1,-1,-1,-1,-1,-1,-1],"loss_changes":[3.8362162E0,4.483144E0,4.4063935E0,3.8883605E0,4.525261E-1,4.329272E0,4.9325333E0,0E0,0E0,0E0,0E0,0E0,0E0,0E0,0E0],"parents":[2147483647,0,0,1,1,2,2,3,3,4,4,5,5,6,6],"right_children":[2,4,6,8,10,12,14,-1,-1,-1,-1,-1,-1,-1,-1],"split_conditions":[-1.4404175E0,-1.812598E-1,1.2665857E-1,-1.7473322E0,-2.5971472E-1,6.841742E-1,-1.8942467E0,3.748977E-3,-5.8541195E-3,-1.5597015E-3,-9.222609E-3,1.0288516E-3,9.040669E-3,6.658089E-3,-1.8517657E-3],"split_indices":[3,9,3,3,7,0,5,0,0,0,0,0,0,0,0],"split_type":[0,0,0,0,0,0,0,0,0,0,0,0,0,0,0],"sum_hessian":[1.3310384E2,2.6937912E1,1.06165924E2,1.4966441E1,1.1971471E1,3.704825E1,6.911768E1,9.723192E0,5.243249E0,3.4899745E0,8.481497E0,2.8628197E1,8.420049E0,5.9737782E0,6.31439E1],"tree_param":{"num_deleted":"0","num_feature":"11","num_nodes":"15","size_leaf_vector":"1"}},{"base_weights":[-2.4061747E-2,-3.7866926E-1,6.446816E-2,1.1145579E-1,-5.7589245E-1,4.7471264E-1,-3.3943184E-2,8.5518E-3,-5.6577814E-3,-7.454115E-3,-0E0,-2.083524E-3,6.2900404E-3,4.595773E-5,-7.624348E-3],"categories":[],"categories_nodes":[],"categories_segments":[],"categories_sizes":[],"default_left":[0,0,0,0,0,0,0,0,0,0,0,0,0,0,0],"id":64,"left_children":[1,3,5,7,9,11,13,-1,-1,-1,-1,-1,-1,-1,-1],"loss_changes":[4.6061807E0,3.1729708E0,4.791635E0,5.3898168E0,2.284181E0,2.8175712E0,2.9461615E0,0E0,0E0,0E0,0E0,0E0,0E0,0E0,0E0],"parents":[2147483647,0,0,1,1,2,2,3,3,4,4,5,5,6,6],"right_children":[2,4,6,8,10,12,14,-1,-1,-1,-1,-1,-1,-1,-1],"split_conditions":[-1.4404175E0,-8.0308676E-1,-7.401281E-1,-7.834998E-1,1.1966844E0,-5.160104E-1,1.5871471E0,8.5518E-3,-5.6577814E-3,-7.454115E-3,-0E0,-2.083524E-3,6.2900404E-3,4.595773E-5,-7.624348E-3],"split_indices":[3,8,3,2,1,1,0,0,0,0,0,0,0,0,0],"split_type":[0,0,0,0,0,0,0,0,0,0,0,0,0,0,0],"sum_hessian":[1.3905396E2,2.792638E1,1.1112757E2,7.4727497E0,2.045363E1,2.1373512E1,8.975406E1,3.7255712E0,3.7471786E0,1.5714703E1,4.738928E0,3.2443266E0,1.8129185E1,8.600821E1,3.745853E0],"tree_param":{"num_deleted":"0","num_feature":"11","num_nodes":"15","size_leaf_vector":"1"}},{"base_weights":[-3.445643E-2,6.720278E-2,-2.6567313E-1,4.0636948E-1,-5.7260666E-2,-4.2961544E-1,1.7635557E-1,8.13968E-3,-0E0,-4.143938E-3,1.4923678E-3,-0E0,-7.847915E-3,6.2151123E-3,-4.5006632E-4],"categories":[],"categories_nodes":[],"categories_segments":[],"categories_sizes":[],"default_left":[0,0,0,0,0,0,0,0,0,0,0,0,0,0,0],"id":65,"left_children":[1,3,5,7,9,11,13,-1,-1,-1,-1,-1,-1,-1,-1],"loss_changes":[3.4591277E0,4.3545036E0,3.5093386E0,4.33737E0,5.5401444E0,5.0564733E0,1.5563374E0,0E0,0E0,0E0,0E0,0E0,0E0,0E0,0E0],"parents":[2147483647,0,0,1,1,2,2,3,3,4,4,5,5,6,6],"right_children":[2,4,6,8,10,12,14,-1,-1,-1,-1,-1,-1,-1,-1],"split_conditions":[7.252168E-1,-7.1300244E-1,7.755773E-1,-8.0308676E-1,7.323175E-1,-6.9044983E-1,-8.919001E-2,8.13968E-3,-0E0,-4.143938E-3,1.4923678E-3,-0E0,-7.847915E-3,6.2151123E-3,-4.5006632E-4],"split_indices":[8,2,4,8,2,4,0,0,0,0,0,0,0,0,0],"split_type":[0,0,0,0,0,0,0,0,0,0,0,0,0,0,0],"sum_hessian":[1.403025E2,9.6691605E1,4.3610912E1,2.612365E1,7.0567955E1,3.2668056E1,1.0942856E1,1.1931613E1,1.4192037E1,2.6187822E1,4.438013E1,1.5718806E1,1.694925E1,3.4839444E0,7.4589114E0],"tree_param":{"num_deleted":"0","num_feature":"11","num_nodes":"15","size_leaf_vector":"1"}},{"base_weights":[-4.5390006E-2,6.271988E-1,-8.114283E-2,1.0130483E-2,-1.9077156E-3,-1.9656692E-1,1.4035162E-1,-1.3742836E-3,-7.575501E-3,6.1698877E-3,-1.2462449E-3],"categories":[],"categories_nodes":[],"categories_segments":[],"categories_sizes":[],"default_left":[0,0,0,0,0,0,0,0,0,0,0],"id":66,"left_children":[1,3,5,-1,-1,7,9,-1,-1,-1,-1],"loss_changes":[3.2549796E0,2.8190882E0,3.6059513E0,0E0,0E0,2.483262E0,6.269777E0,0E0,0E0,0E0,0E0],"parents":[2147483647,0,0,1,1,2,2,5,5,6,6],"right_children":[2,4,6,-1,-1,8,10,-1,-1,-1,-1],"split_conditions":[-1.9894568E0,1.4122044E0,5.969185E-1,1.0130483E-2,-1.9077156E-3,2.061121E0,2.7253708E-1,-1.3742836E-3,-7.575501E-3,6.1698877E-3,-1.2462449E-3],"split_indices":[4,2,4,0,0,8,1,0,0,0,0],"split_type":[0,0,0,0,0,0,0,0,0,0,0],"sum_hessian":[1.4203876E2,5.2109275E0,1.3682782E2,3.712987E0,1.4979403E0,9.154733E1,4.5280487E1,8.531249E1,6.234841E0,1.6140797E1,2.9139692E1],"tree_param":{"num_deleted":"0","num_feature":"11","num_nodes":"11","size_leaf_vector":"1"}},{"base_weights":[-3.2798972E-2,-2.7442583E-1,6.264619E-2,-3.9810166E-1,2.1046147E-1,2.7902862E-1,-8.982412E-2,-9.152224E-4,-8.832788E-3,-4.655423E-3,8.919899E-3,7.0228865E-3,-1.3959745E-4,-3.478297E-3,9.991605E-4],"categories":[],"categories_nodes":[],"categories_segments":[],"categories_sizes":[],"default_left":[0,0,0,0,0,0,0,0,0,0,0,0,0,0,0],"id":67,"left_children":[1,3,5,7,9,11,13,-1,-1,-1,-1,-1,-1,-1,-1],"loss_changes":[3.418434E0,2.7452261E0,3.494079E0,4.5823107E0,4.8530855E0,5.7958136E0,3.0916684E0,0E0,0E0,0E0,0E0,0E0,0E0,0E0,0E0],"parents":[2147483647,0,0,1,1,2,2,3,3,4,4,5,5,6,6],"right_children":[2,4,6,8,10,12,14,-1,-1,-1,-1,-1,-1,-1,-1],"split_conditions":[-6.1001545E-1,1.447312E0,1.6676144E-1,7.657985E-2,-1.6950291E0,5.1293425E-2,1.1568554E-1,-9.152224E-4,-8.832788E-3,-4.655423E-3,8.919899E-3,7.0228865E-3,-1.3959745E-4,-3.478297E-3,9.991605E-4],"split_indices":[1,7,1,7,2,2,5,0,0,0,0,0,0,0,0],"split_type":[0,0,0,0,0,0,0,0,0,0,0,0,0,0,0],"sum_hessian":[1.4101758E2,4.0617355E1,1.00400215E2,3.3398373E1,7.2189827E0,4.234268E1,5.8057537E1,2.2190125E1,1.1208248E1,3.4945185E0,3.7244642E0,1.716159E1,2.5181091E1,2.5189993E1,3.2867542E1],"tree_param":{"num_deleted":"0","num_feature":"11","num_nodes":"15","size_leaf_vector":"1"}},{"base_weights":[-1.9319681E-2,-1.9456127E-1,1.6005056E-1,1.2864776E-1,-5.459817E-1,2.787758E-1,-3.586425E-1,-1.5543537E-3,4.62706E-3,-7.641904E-3,1.393191E-4,-0E0,5.1263045E-3,-6.8750684E-3,2.5794925E-3],"categories":[],"categories_nodes":[],"categories_segments":[],"categories_sizes":[],"default_left":[0,0,0,0,0,0,0,0,0,0,0,0,0,0,0],"id":68,"left_children":[1,3,5,7,9,11,13,-1,-1,-1,-1,-1,-1,-1,-1],"loss_changes":[4.489165E0,8.639294E0,4.3582177E0,3.9297936E0,4.8070107E0,3.8151608E0,3.0602064E0,0E0,0E0,0E0,0E0,0E0,0E0,0E0,0E0],"parents":[2147483647,0,0,1,1,2,2,3,3,4,4,5,5,6,6],"right_children":[2,4,6,8,10,12,14,-1,-1,-1,-1,-1,-1,-1,-1],"split_conditions":[-3.3774734E-3,7.404805E-2,6.7082924E-1,-1.0221946E0,5.8135223E-1,-2.0620796E-1,1.8619771E0,-1.5543537E-3,4.62706E-3,-7.641904E-3,1.393191E-4,-0E0,5.1263045E-3,-6.8750684E-3,2.5794925E-3],"split_indices":[0,6,9,6,7,6,9,0,0,0,0,0,0,0,0],"split_type":[0,0,0,0,0,0,0,0,0,0,0,0,0,0,0],"sum_hessian":[1.3928142E2,7.179725E1,6.748417E1,3.7153996E1,3.4643253E1,5.6263596E1,1.1220573E1,1.9703474E1,1.745052E1,2.5177036E1,9.466217E0,2.6163027E1,3.0100569E1,7.7339816E0,3.4865916E0],"tree_param":{"num_deleted":"0","num_feature":"11","num_nodes":"15","size_leaf_vector":"1"}},{"base_weights":[8.14238E-3,4.809247E-2,-4.9796516E-1,-1.2796158E-1,1.6465983E-1,-7.3710537E-1,3.1015372E-3,8.0554065E-4,-3.3575413E-3,8.60606E-3,1.7415998E-4,-0E0,-1.2730114E-2],"categories":[],"categories_nodes":[],"categories_segments":[],"categories_sizes":[],"default_left":[0,0,0,0,0,0,0,0,0,0,0,0,0],"id":69,"left_children":[1,3,5,7,9,11,-1,-1,-1,-1,-1,-1,-1],"loss_changes":[2.6473725E0,2.765102E0,2.3883848E0,2.414254E0,7.937683E0,3.2149277E0,0E0,0E0,0E0,0E0,0E0,0E0,0E0],"parents":[2147483647,0,0,1,1,2,2,3,3,4,4,5,5],"right_children":[2,4,6,8,10,12,-1,-1,-1,-1,-1,-1,-1],"split_conditions":[1.5871471E0,-5.0735396E-1,2.342431E0,1.974856E-1,-3.5414773E-1,2.3276809E-1,3.1015372E-3,8.0554065E-4,-3.3575413E-3,8.60606E-3,1.7415998E-4,-0E0,-1.2730114E-2],"split_indices":[0,9,9,3,9,4,0,0,0,0,0,0,0],"split_type":[0,0,0,0,0,0,0,0,0,0,0,0,0],"sum_hessian":[1.3878293E2,1.3080325E2,7.9796853E0,5.03391E1,8.046415E1,6.736685E0,1.2430004E0,2.4383251E1,2.5955849E1,1.2189193E1,6.8274956E1,3.491333E0,3.2453518E0],"tree_param":{"num_deleted":"0","num_feature":"11","num_nodes":"13","size_leaf_vector":"1"}},{"base_weights":[-4.857962E-2,-6.35032E-3,-5.135958E-1,7.585528E-1,-4.695003E-2,-1.1314286E-2,-4.0781736E-2,9.546737E-3,-0E0,-9.936611E-4,2.981724E-3,-7.4188993E-3,9.679491E-3],"categories":[],"categories_nodes":[],"categories_segments":[],"categories_sizes":[],"default_left":[0,0,0,0,0,0,0,0,0,0,0,0,0],"id":70,"left_children":[1,3,5,7,9,-1,11,-1,-1,-1,-1,-1,-1],"loss_changes":[2.5584898E0,3.8685954E0,2.5478058E0,5.0179124E-1,2.2890217E0,0E0,6.7818575E0,0E0,0E0,0E0,0E0,0E0,0E0],"parents":[2147483647,0,0,1,1,2,2,3,3,4,4,6,6],"right_children":[2,4,6,8,10,-1,12,-1,-1,-1,-1,-1,-1],"split_conditions":[2.2222226E0,-2.0622578E0,1.2624621E0,4.6646122E-2,1.2212012E0,-1.1314286E-2,-1.8341591E0,9.546737E-3,-0E0,-9.936611E-4,2.981724E-3,-7.4188993E-3,9.679491E-3],"split_indices":[8,6,7,1,1,0,6,0,0,0,0,0,0],"split_type":[0,0,0,0,0,0,0,0,0,0,0,0,0],"sum_hessian":[1.4227505E2,1.3280997E2,9.465094E0,4.7363167E0,1.2807364E2,2.7390237E0,6.7260704E0,2.987793E0,1.7485238E0,1.1337196E2,1.470168E1,4.4946074E0,2.2314627E0],"tree_param":{"num_deleted":"0","num_feature":"11","num_nodes":"13","size_leaf_vector":"1"}},{"base_weights":[-2.3391474E-2,1.8725982E-2,-7.054779E-1,1.0854075E-2,-2.0453515E-2,-9.344606E-3,-1.4156538E-1,1.9324338E-4,-6.003549E-3,-4.990039E-3,8.309581E-4],"categories":[],"categories_nodes":[],"categories_segments":[],"categories_sizes":[],"default_left":[0,0,0,0,0,0,0,0,0,0,0],"id":71,"left_children":[1,3,5,-1,7,-1,9,-1,-1,-1,-1],"loss_changes":[4.4360504E0,6.1784506E0,4.223814E-1,0E0,3.3196225E0,0E0,6.708734E-1,0E0,0E0,0E0,0E0],"parents":[2147483647,0,0,1,1,2,2,4,4,6,6],"right_children":[2,4,6,-1,8,-1,10,-1,-1,-1,-1],"split_conditions":[2.2222226E0,-2.295207E0,-6.233533E-1,1.0854075E-2,1.5400952E0,-9.344606E-3,2.4920084E0,1.9324338E-4,-6.003549E-3,-4.990039E-3,8.309581E-4],"split_indices":[8,2,1,0,1,0,8,0,0,0,0],"split_type":[0,0,0,0,0,0,0,0,0,0,0],"sum_hessian":[1.4027438E2,1.3280003E2,7.4743586E0,3.7379887E0,1.2906204E2,3.9842112E0,3.4901476E0,1.21327484E2,7.7345576E0,1.4990329E0,1.9911147E0],"tree_param":{"num_deleted":"0","num_feature":"11","num_nodes":"11","size_leaf_vector":"1"}},{"base_weights":[-0E0,-2.0454018E-1,1.9090822E-1,-0E0,-5.561603E-1,-8.1414925E-3,2.746846E-1,-1.5640261E-3,3.7036447E-3,8.9177914E-4,-8.051909E-3,3.3179803E-3,-4.1383016E-3],"categories":[],"categories_nodes":[],"categories_segments":[],"categories_sizes":[],"default_left":[0,0,0,0,0,0,0,0,0,0,0,0,0],"id":72,"left_children":[1,3,5,7,9,-1,11,-1,-1,-1,-1,-1,-1],"loss_changes":[5.4254026E0,4.926759E0,6.1657524E0,2.639147E0,4.4724813E0,0E0,2.8567748E0,0E0,0E0,0E0,0E0,0E0,0E0],"parents":[2147483647,0,0,1,1,2,2,3,3,4,4,6,6],"right_children":[2,4,6,8,10,-1,12,-1,-1,-1,-1,-1,-1],"split_conditions":[-1.4573354E-1,-7.186576E-1,-1.9837606E0,-1.0060549E0,-6.6947234E-1,-8.1414925E-3,2.6592588E0,-1.5640261E-3,3.7036447E-3,8.9177914E-4,-8.051909E-3,3.3179803E-3,-4.1383016E-3],"split_indices":[4,4,2,4,9,0,2,0,0,0,0,0,0],"split_type":[0,0,0,0,0,0,0,0,0,0,0,0,0],"sum_hessian":[1.3601543E2,6.506853E1,7.094689E1,4.163671E1,2.3431818E1,3.9933677E0,6.695352E1,2.9408737E1,1.2227975E1,6.2334695E0,1.7198349E1,6.3213226E1,3.7402978E0],"tree_param":{"num_deleted":"0","num_feature":"11","num_nodes":"13","size_leaf_vector":"1"}},{"base_weights":[2.7382901E-2,2.7383986E-1,-5.905436E-2,-5.0266427E-1,4.1017133E-1,-4.2935804E-1,2.0343514E-2,-9.875236E-3,1.8049656E-4,6.481065E-3,1.5692812E-3,-5.446636E-4,-1.0738036E-2,8.505751E-4,-4.3709595E-3],"categories":[],"categories_nodes":[],"categories_segments":[],"categories_sizes":[],"default_left":[0,0,0,0,0,0,0,0,0,0,0,0,0,0,0],"id":73,"left_children":[1,3,5,7,9,11,13,-1,-1,-1,-1,-1,-1,-1,-1],"loss_changes":[3.0717146E0,4.243775E0,3.2138426E0,1.9612464E0,1.4551034E0,3.9801042E0,2.373359E0,0E0,0E0,0E0,0E0,0E0,0E0,0E0,0E0],"parents":[2147483647,0,0,1,1,2,2,3,3,4,4,5,5,6,6],"right_children":[2,4,6,8,10,12,14,-1,-1,-1,-1,-1,-1,-1,-1],"split_conditions":[-8.8016665E-1,-1.0274677E0,-9.656483E-1,-1.0896155E0,-8.308821E-2,-1.3091962E0,1.5871471E0,-9.875236E-3,1.8049656E-4,6.481065E-3,1.5692812E-3,-5.446636E-4,-1.0738036E-2,8.505751E-4,-4.3709595E-3],"split_indices":[7,0,1,8,1,1,0,0,0,0,0,0,0,0,0],"split_type":[0,0,0,0,0,0,0,0,0,0,0,0,0,0,0],"sum_hessian":[1.3651135E2,3.610325E1,1.004081E2,4.242286E0,3.1860964E1,1.7672276E1,8.2735825E1,1.9976692E0,2.244617E0,1.4203145E1,1.7657818E1,1.2691764E1,4.980512E0,7.450914E1,8.2266865E0],"tree_param":{"num_deleted":"0","num_feature":"11","num_nodes":"15","size_leaf_vector":"1"}},{"base_weights":[-5.4780986E-2,-1.8108968E-1,1.9272244E-1,6.369671E-1,-2.4445383E-1,7.5682235E-1,-3.9594285E-2,9.192687E-3,-0E0,-0E0,-4.1335514E-3,-4.8565134E-4,9.126484E-3,-3.8541527E-3,2.5867226E-3],"categories":[],"categories_nodes":[],"categories_segments":[],"categories_sizes":[],"default_left":[0,0,0,0,0,0,0,0,0,0,0,0,0,0,0],"id":74,"left_children":[1,3,5,7,9,11,13,-1,-1,-1,-1,-1,-1,-1,-1],"loss_changes":[4.454516E0,4.986002E0,6.5671988E0,1.2604461E0,3.9000797E0,2.308488E0,3.7313375E0,0E0,0E0,0E0,0E0,0E0,0E0,0E0,0E0],"parents":[2147483647,0,0,1,1,2,2,3,3,4,4,5,5,6,6],"right_children":[2,4,6,8,10,12,14,-1,-1,-1,-1,-1,-1,-1,-1],"split_conditions":[4.3038064E-1,-1.9894568E0,5.415957E-2,-1.3773011E0,1.2665857E-1,-9.4554234E-1,-1.0836023E0,9.192687E-3,-0E0,-0E0,-4.1335514E-3,-4.8565134E-4,9.126484E-3,-3.8541527E-3,2.5867226E-3],"split_indices":[4,4,1,5,3,9,3,0,0,0,0,0,0,0,0],"split_type":[0,0,0,0,0,0,0,0,0,0,0,0,0,0,0],"sum_hessian":[1.3950203E2,9.396927E1,4.5532764E1,5.2119007E0,8.875737E1,1.2921961E1,3.2610806E1,3.214067E0,1.9978337E0,3.586479E1,5.289258E1,1.7420375E0,1.1179923E1,1.5674871E1,1.6935934E1],"tree_param":{"num_deleted":"0","num_feature":"11","num_nodes":"15","size_leaf_vector":"1"}},{"base_weights":[-2.4721984E-2,2.4644521E-1,-1.631719E-1,-4.4662023E-1,3.7372947E-1,3.963039E-1,-2.3970975E-1,3.689827E-3,-7.786509E-3,1.1196971E-2,2.4305389E-3,6.2181386E-3,-1.3210332E-3,-9.605856E-3,-1.7216802E-3],"categories":[],"categories_nodes":[],"categories_segments":[],"categories_sizes":[],"default_left":[0,0,0,0,0,0,0,0,0,0,0,0,0,0,0],"id":75,"left_children":[1,3,5,7,9,11,13,-1,-1,-1,-1,-1,-1,-1,-1],"loss_changes":[5.395839E0,4.4295325E0,4.215239E0,2.6637075E0,2.9849305E0,1.7318519E0,3.4212341E0,0E0,0E0,0E0,0E0,0E0,0E0,0E0,0E0],"parents":[2147483647,0,0,1,1,2,2,3,3,4,4,5,5,6,6],"right_children":[2,4,6,8,10,12,14,-1,-1,-1,-1,-1,-1,-1,-1],"split_conditions":[-7.834998E-1,-1.1586576E0,-1.6778007E0,-1.4907733E0,-7.4235934E-1,1.4615194E0,-1.4065073E0,3.689827E-3,-7.786509E-3,1.1196971E-2,2.4305389E-3,6.2181386E-3,-1.3210332E-3,-9.605856E-3,-1.7216802E-3],"split_indices":[2,4,4,0,4,2,4,0,0,0,0,0,0,0,0],"split_type":[0,0,0,0,0,0,0,0,0,0,0,0,0,0,0],"sum_hessian":[1.4172632E2,4.6287136E1,9.543918E1,5.9884458E0,4.029869E1,9.94485E0,8.549433E1,1.2485864E0,4.739859E0,3.7444212E0,3.655427E1,7.447529E0,2.497321E0,4.9908442E0,8.050349E1],"tree_param":{"num_deleted":"0","num_feature":"11","num_nodes":"15","size_leaf_vector":"1"}},{"base_weights":[5.662591E-2,-5.2965526E-3,5.1303333E-1,6.177448E-1,-7.443637E-2,7.412275E-1,-2.0189744E-1,1.0265944E-2,-3.899703E-5,1.6849285E-3,-2.7440318E-3,-0E0,9.467977E-3,-7.7359593E-3,4.010918E-3],"categories":[],"categories_nodes":[],"categories_segments":[],"categories_sizes":[],"default_left":[0,0,0,0,0,0,0,0,0,0,0,0,0,0,0],"id":76,"left_children":[1,3,5,7,9,11,13,-1,-1,-1,-1,-1,-1,-1,-1],"loss_changes":[4.255819E0,5.1853385E0,3.4110298E0,3.550156E0,5.691566E0,2.1053758E0,2.3666072E0,0E0,0E0,0E0,0E0,0E0,0E0,0E0,0E0],"parents":[2147483647,0,0,1,1,2,2,3,3,4,4,5,5,6,6],"right_children":[2,4,6,8,10,12,14,-1,-1,-1,-1,-1,-1,-1,-1],"split_conditions":[1.2794839E0,-1.7187803E0,2.1450367E0,-1.3563792E0,-5.2076924E-1,-6.919521E-1,2.738968E0,1.0265944E-2,-3.899703E-5,1.6849285E-3,-2.7440318E-3,-0E0,9.467977E-3,-7.7359593E-3,4.010918E-3],"split_indices":[4,4,5,5,7,9,7,0,0,0,0,0,0,0,0],"split_type":[0,0,0,0,0,0,0,0,0,0,0,0,0,0,0],"sum_hessian":[1.3995822E2,1.235789E2,1.637932E1,1.0432694E1,1.131462E2,1.2904583E1,3.4747362E0,6.1892657E0,4.243429E0,5.0062984E1,6.3083218E1,3.2274E0,9.677183E0,1.9914387E0,1.4832975E0],"tree_param":{"num_deleted":"0","num_feature":"11","num_nodes":"15","size_leaf_vector":"1"}},{"base_weights":[-5.5389002E-2,1.0408399E-1,-2.2419162E-1,2.1026492E-1,-3.031754E-1,4.7458375E-1,-2.960274E-1,9.713483E-4,7.882609E-3,-5.8502886E-3,6.8904087E-3,7.833904E-3,-4.1658632E-4,-7.450257E-3,-1.8585247E-3],"categories":[],"categories_nodes":[],"categories_segments":[],"categories_sizes":[],"default_left":[0,0,0,0,0,0,0,0,0,0,0,0,0,0,0],"id":77,"left_children":[1,3,5,7,9,11,13,-1,-1,-1,-1,-1,-1,-1,-1],"loss_changes":[3.8765807E0,3.1512241E0,3.6473134E0,3.2846737E0,4.600872E0,1.4520777E0,2.5554242E0,0E0,0E0,0E0,0E0,0E0,0E0,0E0,0E0],"parents":[2147483647,0,0,1,1,2,2,3,3,4,4,5,5,6,6],"right_children":[2,4,6,8,10,12,14,-1,-1,-1,-1,-1,-1,-1,-1],"split_conditions":[-1.839181E-1,1.9025328E0,-1.4302634E0,9.7317725E-1,2.6105518E0,1.3823935E0,-6.153737E-1,9.713483E-4,7.882609E-3,-5.8502886E-3,6.8904087E-3,7.833904E-3,-4.1658632E-4,-7.450257E-3,-1.8585247E-3],"split_indices":[8,3,7,0,3,8,7,0,0,0,0,0,0,0,0],"split_type":[0,0,0,0,0,0,0,0,0,0,0,0,0,0,0],"sum_hessian":[1.3897551E2,7.0235214E1,6.8740295E1,5.725971E1,1.2975507E1,4.9751306E0,6.3765167E1,5.0075634E1,7.184071E0,1.0976864E1,1.9986432E0,3.2333248E0,1.7418058E0,9.966581E0,5.3798584E1],"tree_param":{"num_deleted":"0","num_feature":"11","num_nodes":"15","size_leaf_vector":"1"}},{"base_weights":[-7.891902E-2,6.116635E-2,-2.4253276E-1,4.8074463E-1,-1.0721752E-1,-5.097425E-1,-0E0,2.3611665E-3,1.0897782E-2,-4.9324357E-3,1.2717429E-3,-1.8842183E-3,-1.1308195E-2,5.088986E-3,-1.2067902E-3],"categories":[],"categories_nodes":[],"categories_segments":[],"categories_sizes":[],"default_left":[0,0,0,0,0,0,0,0,0,0,0,0,0,0,0],"id":78,"left_children":[1,3,5,7,9,11,13,-1,-1,-1,-1,-1,-1,-1,-1],"loss_changes":[3.3208723E0,5.5596447E0,4.506383E0,2.316669E0,5.150888E0,5.4865303E0,2.4283955E0,0E0,0E0,0E0,0E0,0E0,0E0,0E0,0E0],"parents":[2147483647,0,0,1,1,2,2,3,3,4,4,5,5,6,6],"right_children":[2,4,6,8,10,12,14,-1,-1,-1,-1,-1,-1,-1,-1],"split_conditions":[-1.7729728E-1,-7.834998E-1,3.9566317E-1,-9.3607986E-1,6.2640375E-1,-7.051464E-2,-6.303069E-1,2.3611665E-3,1.0897782E-2,-4.9324357E-3,1.2717429E-3,-1.8842183E-3,-1.1308195E-2,5.088986E-3,-1.2067902E-3],"split_indices":[8,2,7,2,2,7,0,0,0,0,0,0,0,0,0],"split_type":[0,0,0,0,0,0,0,0,0,0,0,0,0,0,0],"sum_hessian":[1.3846303E2,7.345469E1,6.500834E1,2.1089867E1,5.2364822E1,3.0899279E1,3.410906E1,1.7117044E1,3.9728234E0,1.9963331E1,3.240149E1,2.2182865E1,8.716414E0,6.224423E0,2.7884634E1],"tree_param":{"num_deleted":"0","num_feature":"11","num_nodes":"15","size_leaf_vector":"1"}},{"base_weights":[-0E0,-2.954848E-1,1.2097143E-1,-5.411241E-1,-0E0,4.9853283E-1,-4.0022362E-2,-3.623737E-5,-7.7598393E-3,-4.625134E-3,6.4796256E-3,7.930542E-3,-3.038381E-3,2.249361E-3,-2.7070444E-3],"categories":[],"categories_nodes":[],"categories_segments":[],"categories_sizes":[],"default_left":[0,0,0,0,0,0,0,0,0,0,0,0,0,0,0],"id":79,"left_children":[1,3,5,7,9,11,13,-1,-1,-1,-1,-1,-1,-1,-1],"loss_changes":[5.1684995E0,2.8721228E0,6.375253E0,2.4376192E0,6.794462E0,7.959776E0,4.4538083E0,0E0,0E0,0E0,0E0,0E0,0E0,0E0,0E0],"parents":[2147483647,0,0,1,1,2,2,3,3,4,4,5,5,6,6],"right_children":[2,4,6,8,10,12,14,-1,-1,-1,-1,-1,-1,-1,-1],"split_conditions":[-6.1001545E-1,6.779743E-2,-5.1923808E-2,-5.528145E-1,1.0264981E-1,1.379777E0,-6.453788E-1,-3.623737E-5,-7.7598393E-3,-4.625134E-3,6.4796256E-3,7.930542E-3,-3.038381E-3,2.249361E-3,-2.7070444E-3],"split_indices":[1,9,1,9,2,2,2,0,0,0,0,0,0,0,0],"split_type":[0,0,0,0,0,0,0,0,0,0,0,0,0,0,0],"sum_hessian":[1.3994984E2,4.0831837E1,9.9118004E1,2.0931105E1,1.9900734E1,2.961827E1,6.949973E1,7.4752703E0,1.3455834E1,1.2196129E1,7.7046046E0,2.2134182E1,7.484089E0,3.1355307E1,3.8144424E1],"tree_param":{"num_deleted":"0","num_feature":"11","num_nodes":"15","size_leaf_vector":"1"}},{"base_weights":[-1.1535068E-3,2.347982E-2,-1.0282777E-2,5.4894835E-1,-1.5048107E-2,-2.619921E-3,8.214104E-3,-4.8430238E-4,5.401951E-3],"categories":[],"categories_nodes":[],"categories_segments":[],"categories_sizes":[],"default_left":[0,0,0,0,0,0,0,0,0],"id":80,"left_children":[1,3,-1,5,7,-1,-1,-1,-1],"loss_changes":[4.0350647E0,3.0315967E0,0E0,2.8591578E0,2.1516433E0,0E0,0E0,0E0,0E0],"parents":[2147483647,0,0,1,1,3,3,4,4],"right_children":[2,4,-1,6,8,-1,-1,-1,-1],"split_conditions":[2.2283905E0,-2.0622578E0,-1.0282777E-2,-3.0540247E0,2.6105518E0,-2.619921E-3,8.214104E-3,-4.8430238E-4,5.401951E-3],"split_indices":[0,6,0,5,3,0,0,0,0],"split_type":[0,0,0,0,0,0,0,0,0],"sum_hessian":[1.3669148E2,1.34446E2,2.2454786E0,8.713345E0,1.2573266E2,1.7442832E0,6.9690614E0,1.20743065E2,4.989599E0],"tree_param":{"num_deleted":"0","num_feature":"11","num_nodes":"9","size_leaf_vector":"1"}},{"base_weights":[1.2616653E-2,-8.150477E-2,3.46707E-1,2.2074454E-1,-2.1791072E-1,-1.1011973E-1,6.3312113E-1,-0E0,5.467533E-3,-2.8410703E-3,6.2774047E-3,-4.3297056E-3,7.2618616E-3,1.0037134E-2,-1.8882587E-3],"categories":[],"categories_nodes":[],"categories_segments":[],"categories_sizes":[],"default_left":[0,0,0,0,0,0,0,0,